<?xml version="1.0"?>
<opencv_storage>
<opencv_ml_svm>
  <format>3</format>
  <svmType>C_SVC</svmType>
  <kernel>
    <type>RBF</type>
    <gamma>1.</gamma></kernel>
  <C>1.</C>
  <term_criteria><epsilon>1.1920928955078125e-07</epsilon>
    <iterations>1000</iterations></term_criteria>
  <var_count>500</var_count>
  <class_count>2</class_count>
  <class_labels type_id="opencv-matrix">
    <rows>2</rows>
    <cols>1</cols>
    <dt>i</dt>
    <data>
      0 1</data></class_labels>
  <sv_total>2</sv_total>
  <support_vectors>
    <_>
      1.45202018e-02 7.57575780e-03 1.89393945e-03 0. 4.41919174e-03
      2.52525252e-03 4.41919174e-03 6.31313131e-04 1.89393945e-03
      6.31313131e-04 0. 0. 1.07323229e-02 1.01010101e-02 1.26262626e-03
      4.41919174e-03 1.26262626e-03 8.83838348e-03 6.31313131e-04
      1.89393945e-03 8.20707064e-03 6.31313131e-04 1.89393945e-03
      3.78787890e-03 1.26262626e-03 5.68181835e-03 3.15656560e-03
      7.57575780e-03 3.78787890e-03 7.57575780e-03 1.07323229e-02
      6.31313131e-04 8.20707064e-03 2.52525252e-03 4.41919174e-03
      1.89393945e-03 1.89393945e-03 6.31313131e-04 0. 1.89393945e-03
      6.31313131e-04 0. 0. 1.26262626e-03 2.52525252e-03 3.78787890e-03
      1.89393945e-03 6.31313131e-04 3.15656560e-03 2.52525252e-03
      1.89393945e-03 1.89393945e-03 8.20707064e-03 4.41919174e-03
      1.13636367e-02 0. 9.46969725e-03 6.31313131e-04 2.52525252e-03
      1.26262626e-03 5.68181835e-03 1.26262626e-03 1.57828275e-02 0.
      1.89393945e-03 6.31313131e-04 4.41919174e-03 6.31313131e-04
      1.26262626e-03 0. 4.41919174e-03 1.26262626e-03 2.52525252e-03
      1.89393945e-03 1.89393945e-03 8.20707064e-03 1.26262626e-03
      1.26262626e-03 1.89393945e-03 6.31313131e-04 0. 1.89393945e-03
      2.52525252e-03 1.89393945e-03 2.52525252e-03 1.26262626e-03 0.
      6.31313131e-04 1.26262626e-03 1.26262626e-03 2.52525252e-03
      1.26262626e-03 6.31313131e-04 2.52525252e-03 1.26262626e-03 0. 0.
      1.89393945e-03 1.26262626e-03 0. 0. 3.15656560e-03 0. 0.
      1.26262626e-03 3.15656560e-03 6.31313131e-04 2.52525252e-03
      1.26262626e-03 3.15656560e-03 6.94444450e-03 3.15656560e-03
      1.26262626e-03 6.31313131e-04 5.68181835e-03 3.78787890e-03
      6.31313131e-04 1.89393945e-03 0. 0. 5.05050505e-03 5.05050505e-03
      0. 1.89393945e-03 0. 3.15656560e-03 1.26262626e-03 1.89393945e-03
      4.41919174e-03 1.26262626e-03 6.31313131e-04 1.26262626e-03
      1.89393945e-03 0. 1.19949495e-02 6.31313131e-04 0. 0.
      6.31313131e-04 6.31313131e-04 6.31313131e-04 1.26262626e-03 0.
      1.89393945e-03 2.52525252e-03 7.57575780e-03 0. 6.31313131e-04
      1.26262626e-03 6.94444450e-03 1.26262626e-03 6.31313131e-04
      4.41919174e-03 0. 0. 1.26262626e-03 2.52525252e-03 1.89393945e-03
      6.31313131e-04 1.26262626e-03 6.31313131e-04 4.41919174e-03
      3.15656560e-03 6.31313131e-04 1.01010101e-02 3.15656560e-03
      8.20707064e-03 6.31313131e-04 2.52525252e-03 1.26262626e-03
      1.26262626e-03 0. 6.31313131e-04 6.31313131e-04 3.15656560e-03
      3.78787890e-03 6.31313131e-04 1.26262626e-03 2.52525252e-03 0.
      3.78787890e-03 0. 1.26262626e-03 3.15656560e-03 3.78787890e-03 0.
      6.31313131e-04 6.31313131e-04 6.31313131e-04 3.78787890e-03 0.
      1.26262626e-03 5.05050505e-03 1.26262626e-03 1.26262626e-03
      6.31313131e-04 6.31313119e-03 1.13636367e-02 1.89393945e-03 0. 0.
      2.52525252e-03 1.89393945e-03 0. 0. 1.89393945e-03 7.57575780e-03
      6.31313131e-04 1.26262626e-03 1.26262626e-03 5.05050505e-03
      3.15656560e-03 0. 2.52525252e-03 6.31313131e-04 4.41919174e-03
      6.31313131e-04 0. 6.31313131e-04 1.89393945e-03 6.94444450e-03
      1.89393945e-03 6.31313131e-04 4.41919174e-03 3.15656560e-03
      2.52525252e-03 0. 2.52525252e-03 6.31313131e-04 6.31313131e-04
      6.31313131e-04 6.31313131e-04 6.31313131e-04 2.52525252e-03 0.
      6.94444450e-03 1.26262626e-03 1.89393945e-03 6.31313131e-04
      6.31313131e-04 2.52525252e-03 3.78787890e-03 6.31313131e-04
      6.31313131e-04 6.31313131e-04 3.15656560e-03 1.26262626e-03
      6.31313131e-04 0. 1.89393945e-03 4.41919174e-03 6.31313131e-04
      1.89393945e-03 1.26262626e-03 6.31313131e-04 0. 6.31313131e-04
      6.31313131e-04 1.26262626e-03 1.26262626e-03 3.78787890e-03
      3.15656560e-03 1.89393945e-03 3.15656560e-03 1.26262626e-03
      1.89393945e-03 1.38888890e-02 0. 3.15656560e-03 0. 4.41919174e-03
      1.89393945e-03 6.31313131e-04 1.26262626e-03 3.78787890e-03 0.
      6.31313131e-04 0. 6.31313131e-04 6.31313131e-04 0. 2.52525252e-03
      6.31313131e-04 3.15656560e-03 1.89393945e-03 6.31313131e-04 0. 0.
      3.15656560e-03 6.31313131e-04 6.31313131e-04 3.15656560e-03 0. 0.
      3.15656560e-03 1.26262626e-03 0. 4.41919174e-03 1.26262626e-03
      3.78787890e-03 6.31313131e-04 6.31313131e-04 6.31313131e-04
      3.78787890e-03 3.78787890e-03 6.31313131e-04 6.31313131e-04
      2.52525252e-03 6.31313131e-04 6.31313131e-04 6.31313119e-03
      3.15656560e-03 6.31313131e-04 1.89393945e-03 1.89393945e-03
      6.31313131e-04 2.52525252e-03 5.68181835e-03 6.31313131e-04
      6.31313131e-04 6.31313131e-04 6.31313131e-04 2.52525252e-03
      6.31313131e-04 6.31313131e-04 1.26262626e-03 3.15656560e-03
      1.26262626e-03 1.89393945e-03 2.52525252e-03 1.26262626e-03
      1.26262626e-03 6.31313131e-04 2.52525252e-03 0. 6.31313131e-04
      1.89393945e-03 0. 0. 1.07323229e-02 6.31313131e-04 1.26262626e-03
      6.31313131e-04 6.94444450e-03 1.26262626e-03 6.31313131e-04
      1.89393945e-03 6.31313131e-04 1.26262626e-03 1.26262626e-03
      4.41919174e-03 0. 6.31313131e-04 6.31313131e-04 6.31313131e-04
      2.52525252e-03 1.26262626e-03 1.26262626e-03 6.94444450e-03
      6.31313131e-04 1.26262626e-03 0. 6.31313131e-04 2.52525252e-03
      6.31313131e-04 1.89393945e-03 1.26262626e-03 0. 1.89393945e-03
      1.89393945e-03 1.89393945e-03 5.05050505e-03 6.31313131e-04 0.
      5.68181835e-03 0. 2.52525252e-03 2.52525252e-03 1.26262626e-03
      3.78787890e-03 5.05050505e-03 0. 2.52525252e-03 1.26262626e-03 0.
      3.15656560e-03 1.89393945e-03 0. 0. 6.31313131e-04 1.89393945e-03
      1.26262626e-03 1.26262626e-03 1.26262626e-03 6.31313131e-04 0.
      4.41919174e-03 1.89393945e-03 3.78787890e-03 6.31313131e-04
      4.41919174e-03 1.26262626e-03 4.41919174e-03 1.26262626e-03
      6.31313131e-04 6.31313131e-04 0. 6.31313131e-04 8.83838348e-03
      6.31313131e-04 1.26262626e-03 0. 1.89393945e-03 0. 0. 0. 0.
      6.31313131e-04 3.15656560e-03 6.31313131e-04 0. 0. 0.
      5.68181835e-03 1.26262626e-03 0. 0. 1.26262626e-03 1.26262626e-03
      2.52525252e-03 6.31313131e-04 6.31313131e-04 1.89393945e-03
      6.31313119e-03 6.31313131e-04 6.31313131e-04 1.26262626e-03
      1.26262626e-03 0. 6.31313131e-04 6.31313131e-04 2.52525252e-03 0.
      6.31313131e-04 6.31313131e-04 4.41919174e-03 3.15656560e-03
      6.31313131e-04 8.20707064e-03 0. 0. 2.52525252e-03 6.31313131e-04
      6.31313131e-04 3.15656560e-03 7.57575780e-03 0. 0. 6.31313131e-04
      1.26262626e-03 6.31313131e-04 1.26262626e-03 6.31313131e-04
      1.26262626e-03 6.31313131e-04 0. 0. 0. 2.52525252e-03
      1.26262626e-03 6.31313131e-04 0. 0. 2.52525252e-03 6.31313131e-04
      3.15656560e-03 6.31313131e-04 1.26262626e-03 1.89393945e-03 0. 0.
      6.31313131e-04 6.31313131e-04 6.31313131e-04 1.26262626e-03 0.
      6.31313131e-04 1.26262626e-03 6.31313131e-04 0. 6.31313131e-04
      4.41919174e-03 1.26262626e-03 8.20707064e-03 6.31313131e-04
      6.31313131e-04 6.31313131e-04 0. 3.78787890e-03 1.26262626e-03</_>
    <_>
      1.02489023e-02 8.78477283e-03 0. 1.46412884e-03 6.58857962e-03
      1.46412884e-03 3.66032217e-03 2.19619321e-03 7.32064422e-04
      7.32064422e-04 2.92825769e-03 2.19619321e-03 5.85651537e-03
      5.85651537e-03 7.32064422e-04 0. 2.92825769e-03 3.66032217e-03
      7.32064422e-04 7.32064422e-04 5.85651537e-03 2.19619321e-03 0.
      4.39238641e-03 1.46412884e-03 1.46412884e-03 2.92825769e-03
      2.92825769e-03 3.66032217e-03 8.78477283e-03 6.58857962e-03 0.
      6.58857962e-03 1.46412884e-03 1.46412884e-03 1.46412884e-03
      2.19619321e-03 7.32064422e-04 7.32064422e-04 7.32064422e-04
      2.19619321e-03 1.46412884e-03 7.32064422e-04 7.32064422e-04 0.
      2.92825769e-03 2.92825769e-03 0. 2.19619321e-03 1.46412884e-03
      1.46412884e-03 0. 3.66032217e-03 2.92825769e-03 0. 7.32064422e-04
      4.39238641e-03 7.32064422e-04 1.24450950e-02 7.32064422e-04
      4.39238641e-03 1.46412884e-03 5.85651537e-03 2.19619321e-03
      8.78477283e-03 7.32064422e-04 4.39238641e-03 0. 0. 1.46412884e-03
      0. 7.32064433e-03 1.46412884e-03 1.46412884e-03 2.92825769e-03
      1.46412884e-03 2.92825769e-03 2.19619321e-03 5.12445113e-03 0.
      7.32064422e-04 0. 0. 0. 7.32064422e-04 7.32064422e-04
      1.46412884e-03 1.46412884e-03 4.39238641e-03 0. 0. 0. 0.
      5.12445113e-03 1.46412884e-03 7.32064422e-04 1.46412884e-03
      1.46412884e-03 4.39238641e-03 5.85651537e-03 1.46412884e-03
      1.46412884e-03 7.32064422e-04 2.19619321e-03 2.19619321e-03
      5.85651537e-03 0. 2.19619321e-03 4.39238641e-03 2.92825769e-03
      5.12445113e-03 2.19619321e-03 0. 0. 5.85651537e-03 7.32064422e-04
      1.46412884e-03 0. 4.39238641e-03 7.32064422e-04 0. 2.92825769e-03
      2.19619321e-03 7.32064433e-03 2.19619321e-03 4.39238641e-03 0. 0.
      2.92825769e-03 0. 1.46412884e-03 0. 2.92825769e-03 7.32064422e-04
      5.12445113e-03 2.19619321e-03 3.66032217e-03 7.32064422e-04
      5.85651537e-03 1.46412884e-03 7.32064422e-04 2.92825769e-03
      2.92825769e-03 1.46412884e-03 2.92825769e-03 2.92825769e-03
      1.46412884e-03 2.92825769e-03 0. 7.32064422e-04 0. 0.
      2.19619321e-03 7.32064422e-04 7.32064422e-04 2.19619321e-03
      1.46412884e-03 4.39238641e-03 0. 7.32064422e-04 0. 2.19619321e-03
      1.39092244e-02 1.46412884e-03 3.66032217e-03 3.66032217e-03
      1.75695457e-02 2.92825769e-03 3.66032217e-03 0. 0. 1.46412884e-03
      2.19619321e-03 3.66032217e-03 2.92825769e-03 5.85651537e-03
      1.46412884e-03 0. 3.66032217e-03 7.32064422e-04 7.32064422e-04
      4.39238641e-03 0. 2.92825769e-03 7.32064433e-03 1.46412884e-03 0.
      7.32064422e-04 1.46412884e-03 4.39238641e-03 2.19619321e-03 0.
      5.12445113e-03 2.92825769e-03 5.12445113e-03 4.39238641e-03
      4.39238641e-03 6.58857962e-03 1.46412884e-03 7.32064422e-04
      1.46412884e-03 0. 1.46412884e-03 1.46412884e-03 7.32064422e-04 0.
      5.85651537e-03 1.46412884e-03 2.19619321e-03 5.85651537e-03
      2.19619321e-03 2.92825769e-03 7.32064422e-04 7.32064433e-03 0.
      2.19619321e-03 1.46412884e-03 7.32064422e-04 0. 2.92825769e-03
      2.19619321e-03 2.19619321e-03 0. 1.46412884e-03 1.46412884e-03
      2.19619321e-03 7.32064422e-04 2.92825769e-03 0. 7.32064422e-04 0.
      0. 7.32064422e-04 1.46412884e-03 7.32064422e-04 6.58857962e-03 0.
      2.92825769e-03 3.66032217e-03 0. 3.66032217e-03 0. 2.19619321e-03
      0. 0. 7.32064422e-04 1.46412884e-03 0. 7.32064422e-04
      7.32064422e-04 9.51683708e-03 6.58857962e-03 0. 0. 0.
      7.32064422e-04 0. 0. 0. 0. 6.58857962e-03 0. 1.46412884e-03
      3.66032217e-03 0. 7.32064422e-04 1.31771592e-02 7.32064422e-04
      5.12445113e-03 1.46412884e-03 0. 2.92825769e-03 0. 0.
      4.39238641e-03 7.32064422e-04 0. 7.32064422e-04 0. 7.32064422e-04
      2.92825769e-03 7.32064422e-04 1.46412884e-03 0. 2.19619321e-03
      2.19619321e-03 3.66032217e-03 1.46412884e-03 4.39238641e-03
      2.19619321e-03 0. 2.92825769e-03 4.39238641e-03 7.32064422e-04
      5.12445113e-03 0. 2.19619321e-03 0. 0. 7.32064433e-03
      7.32064422e-04 7.32064422e-04 0. 7.32064422e-04 0. 0.
      1.46412884e-03 1.46412884e-03 5.12445113e-03 5.85651537e-03
      1.39092244e-02 1.46412884e-03 0. 0. 7.32064422e-04 1.46412884e-03
      4.39238641e-03 4.39238641e-03 0. 7.32064422e-04 0. 0.
      1.46412884e-03 0. 0. 2.19619321e-03 5.12445113e-03 1.46412884e-03
      0. 0. 0. 2.19619321e-03 0. 1.46412884e-03 1.46412884e-03 0.
      5.12445113e-03 1.46412884e-03 2.19619321e-03 5.85651537e-03 0. 0.
      0. 6.58857962e-03 7.32064422e-04 0. 1.46412884e-03 0. 0.
      7.32064422e-04 1.46412884e-03 2.19619321e-03 0. 0. 2.92825769e-03
      3.66032217e-03 0. 4.39238641e-03 5.85651537e-03 0. 0.
      7.32064422e-04 0. 5.12445113e-03 7.32064422e-04 1.46412884e-03
      7.32064422e-04 7.32064422e-04 0. 0. 0. 7.32064422e-04 0.
      7.32064422e-04 7.32064422e-04 7.32064422e-04 2.92825769e-03
      1.46412884e-03 5.12445113e-03 0. 2.92825769e-03 7.32064422e-04
      3.66032217e-03 7.32064422e-04 2.19619321e-03 3.66032217e-03
      7.32064422e-04 7.32064422e-04 6.58857962e-03 0. 3.66032217e-03 0.
      7.32064422e-04 0. 5.12445113e-03 7.32064422e-04 5.85651537e-03 0.
      2.19619321e-03 0. 2.92825769e-03 1.46412884e-03 3.66032217e-03
      2.19619321e-03 7.32064422e-04 1.46412884e-03 2.19619321e-03 0.
      5.85651537e-03 0. 7.32064422e-04 7.32064422e-04 7.32064422e-04
      7.32064422e-04 7.32064422e-04 7.32064422e-04 1.46412884e-03 0.
      1.31771592e-02 2.19619321e-03 7.32064422e-04 7.32064422e-04
      7.32064422e-04 2.92825769e-03 0. 5.85651537e-03 7.32064422e-04
      2.19619321e-03 7.32064422e-04 4.39238641e-03 7.32064422e-04 0.
      7.32064422e-04 4.39238641e-03 5.12445113e-03 0. 0. 0.
      1.46412884e-03 0. 0. 2.19619321e-03 1.46412884e-03 0.
      1.46412884e-03 0. 2.92825769e-03 0. 3.66032217e-03 7.32064422e-04
      7.32064422e-04 3.66032217e-03 0. 7.32064422e-04 5.12445113e-03
      2.19619321e-03 2.19619321e-03 7.32064422e-04 7.32064422e-04
      3.66032217e-03 7.32064422e-04 7.32064422e-04 0. 4.39238641e-03
      7.32064422e-04 4.39238641e-03 7.32064422e-04 7.32064422e-04 0. 0.
      1.46412884e-03 7.32064422e-04 3.66032217e-03 2.92825769e-03 0. 0.
      7.32064422e-04 7.32064422e-04 4.39238641e-03 1.46412884e-03
      7.32064422e-04 1.46412884e-03 0. 7.32064422e-04 7.32064422e-04
      7.32064422e-04 0. 2.92825769e-03 1.46412884e-03 7.32064422e-04 0.
      5.85651537e-03 7.32064422e-04 2.19619321e-03 0. 1.46412884e-03 0.
      1.46412884e-03 3.66032217e-03 0.</_></support_vectors>
  <decision_functions>
    <_>
      <sv_count>2</sv_count>
      <rho>0.</rho>
      <alpha>
        1. -1.</alpha>
      <index>
        0 1</index></_></decision_functions></opencv_ml_svm>
</opencv_storage>
