<?xml version="1.0"?>
<opencv_storage>
<opencv_ml_svm>
  <format>3</format>
  <svmType>C_SVC</svmType>
  <kernel>
    <type>RBF</type>
    <gamma>1.</gamma></kernel>
  <C>1.</C>
  <term_criteria><epsilon>1.1920928955078125e-07</epsilon>
    <iterations>1000</iterations></term_criteria>
  <var_count>500</var_count>
  <class_count>10</class_count>
  <class_labels type_id="opencv-matrix">
    <rows>10</rows>
    <cols>1</cols>
    <dt>i</dt>
    <data>
      0 1 2 3 4 5 6 7 8 9</data></class_labels>
  <sv_total>10</sv_total>
  <support_vectors>
    <_>
      1.61030598e-03 8.05152988e-04 1.61030598e-03 2.41545890e-03
      2.41545890e-03 0. 3.22061195e-03 4.02576476e-03 2.41545890e-03
      8.05152988e-04 0. 4.02576476e-03 4.02576476e-03 8.05152988e-04 0.
      8.05152988e-04 1.69082135e-02 2.41545890e-03 2.41545890e-03
      2.41545890e-03 1.61030598e-03 2.41545890e-03 1.61030598e-03
      4.83091781e-03 1.61030598e-03 8.05152988e-04 0. 3.22061195e-03
      8.05152988e-04 8.05152988e-04 2.41545890e-03 4.02576476e-03
      1.61030598e-03 8.05152988e-04 8.05152988e-04 7.24637695e-03
      1.61030598e-03 1.61030598e-03 2.41545890e-03 1.61030598e-03
      1.61030598e-03 2.41545890e-03 0. 4.83091781e-03 4.02576476e-03
      1.61030598e-03 8.05152988e-04 4.83091781e-03 1.61030598e-03
      3.22061195e-03 5.63607085e-03 4.83091781e-03 2.41545890e-03 0.
      2.41545890e-03 3.22061195e-03 1.61030598e-03 1.61030598e-03 0.
      8.05152988e-04 8.05152988e-04 2.41545890e-03 1.61030598e-03
      2.41545890e-03 3.22061195e-03 8.05152988e-04 2.41545890e-03
      8.05152988e-04 2.41545890e-03 4.83091781e-03 8.05152988e-04 0.
      8.05152988e-04 1.61030598e-03 8.05152988e-04 4.83091781e-03
      1.61030598e-03 8.05152988e-04 1.61030598e-03 8.05152988e-04
      1.61030598e-03 0. 8.05152988e-04 2.41545890e-03 1.61030598e-03
      2.41545890e-03 1.61030598e-03 1.61030598e-03 1.61030598e-03 0.
      2.41545890e-03 2.41545890e-03 2.41545890e-03 3.22061195e-03
      2.41545890e-03 8.05152988e-04 1.61030598e-03 1.61030598e-03
      1.61030598e-03 4.02576476e-03 8.05152988e-04 0. 1.61030598e-03
      8.05152988e-04 0. 0. 4.02576476e-03 2.41545890e-03 0.
      3.22061195e-03 1.61030598e-03 2.41545890e-03 0. 3.22061195e-03
      8.05152988e-04 2.41545890e-03 7.24637695e-03 8.05152988e-04
      1.61030598e-03 3.22061195e-03 4.83091781e-03 0. 2.41545890e-03 0.
      0. 1.61030598e-03 2.41545890e-03 2.41545890e-03 0. 1.61030598e-03
      0. 1.61030598e-03 2.41545890e-03 1.04669891e-02 0. 0.
      8.05152988e-04 8.05152988e-04 8.05152988e-04 3.22061195e-03
      1.61030598e-03 8.05152988e-04 0. 1.61030598e-03 8.05152988e-04
      8.05152988e-04 4.83091781e-03 0. 1.61030598e-03 1.61030598e-03
      1.61030598e-03 1.61030598e-03 2.41545890e-03 2.41545890e-03
      8.05152988e-04 8.05152988e-04 2.41545890e-03 8.05152988e-04
      8.05152988e-04 8.05152988e-04 0. 4.83091781e-03 2.41545890e-03
      8.05152988e-04 0. 8.05152988e-04 2.41545890e-03 2.41545890e-03
      8.05152988e-04 2.41545890e-03 8.05152988e-04 4.83091781e-03
      1.61030598e-03 4.83091781e-03 1.61030598e-03 2.41545890e-03
      3.22061195e-03 8.05152988e-04 0. 8.05152988e-04 0. 1.61030598e-03
      0. 4.02576476e-03 3.22061195e-03 3.22061195e-03 1.61030598e-03
      8.05152988e-04 1.61030598e-03 8.05152988e-04 0. 6.44122390e-03
      1.61030598e-03 3.22061195e-03 1.61030598e-03 8.05152988e-04
      2.41545890e-03 6.44122390e-03 1.61030598e-03 3.22061195e-03
      3.22061195e-03 2.41545890e-03 0. 3.22061195e-03 7.24637695e-03
      4.02576476e-03 4.02576476e-03 8.05152953e-03 0. 8.05152988e-04
      3.22061195e-03 5.63607085e-03 0. 1.61030598e-03 2.41545890e-03
      3.22061195e-03 5.63607085e-03 0. 8.05152988e-04 8.05152988e-04
      8.05152988e-04 8.05152988e-04 0. 8.05152988e-04 2.41545890e-03
      4.02576476e-03 8.05152988e-04 0. 0. 8.05152988e-04 4.02576476e-03
      1.61030598e-03 8.05152988e-04 0. 0. 1.61030598e-03 4.02576476e-03
      1.61030598e-03 4.02576476e-03 1.61030598e-03 0. 5.63607085e-03
      1.61030598e-03 1.61030598e-03 2.41545890e-03 3.22061195e-03
      1.61030598e-03 5.63607085e-03 8.05152988e-04 3.22061195e-03 0. 0.
      1.61030598e-03 8.05152988e-04 2.41545890e-03 5.63607085e-03
      2.41545890e-03 4.02576476e-03 2.41545890e-03 7.24637695e-03 0. 0.
      0. 0. 4.02576476e-03 4.02576476e-03 2.41545890e-03 4.83091781e-03
      3.22061195e-03 1.61030598e-03 4.02576476e-03 8.05152988e-04
      8.05152988e-04 8.05152988e-04 2.41545890e-03 8.05152988e-04
      2.41545890e-03 2.41545890e-03 1.61030598e-03 1.61030598e-03 0. 0.
      3.22061195e-03 4.02576476e-03 1.61030598e-03 2.41545890e-03
      6.44122390e-03 4.83091781e-03 0. 1.61030598e-03 2.41545890e-03
      1.61030598e-03 0. 1.61030598e-03 1.61030598e-03 8.05152988e-04
      3.22061195e-03 3.22061195e-03 8.05152988e-04 4.02576476e-03
      4.83091781e-03 8.05152988e-04 2.41545890e-03 0. 3.22061195e-03
      3.22061195e-03 3.22061195e-03 8.05152988e-04 0. 8.05152988e-04
      2.41545890e-03 2.41545890e-03 4.83091781e-03 1.61030598e-03
      8.05152988e-04 4.83091781e-03 8.05152988e-04 1.61030598e-03
      1.61030598e-03 1.61030598e-03 8.05152988e-04 1.61030598e-03
      3.22061195e-03 0. 6.44122390e-03 2.41545890e-03 4.83091781e-03
      2.41545890e-03 3.22061195e-03 1.61030598e-03 1.61030598e-03
      8.05152988e-04 3.22061195e-03 5.63607085e-03 8.05152988e-04
      8.05152988e-04 8.05152988e-04 2.41545890e-03 4.83091781e-03
      2.41545890e-03 0. 8.05152988e-04 8.05152988e-04 3.22061195e-03
      4.83091781e-03 0. 4.02576476e-03 0. 0. 2.41545890e-03 0.
      1.61030598e-03 2.41545890e-03 8.05152988e-04 4.02576476e-03
      3.22061195e-03 0. 8.05152988e-04 8.05152988e-04 2.41545890e-03
      8.05152988e-04 4.02576476e-03 2.41545890e-03 0. 0. 1.61030598e-03
      8.05152988e-04 3.22061195e-03 8.05152988e-04 0. 2.41545890e-03 0.
      8.05152988e-04 0. 8.05152988e-04 2.41545890e-03 2.41545890e-03
      1.61030598e-03 8.05152988e-04 1.61030598e-03 0. 8.05152988e-04
      3.22061195e-03 5.63607085e-03 2.41545890e-03 3.22061195e-03
      1.61030598e-03 1.61030598e-03 0. 4.02576476e-03 0. 0. 0.
      2.41545890e-03 8.05152988e-04 4.02576476e-03 4.83091781e-03
      8.05152953e-03 0. 0. 1.61030598e-03 8.05152988e-04 4.02576476e-03
      8.05152988e-04 2.41545890e-03 8.05152988e-04 1.61030598e-03
      2.41545890e-03 0. 3.22061195e-03 2.41545890e-03 3.22061195e-03
      2.41545890e-03 2.41545890e-03 8.05152988e-04 2.41545890e-03
      7.24637695e-03 0. 2.41545890e-03 8.05152988e-04 6.44122390e-03
      1.61030598e-03 4.02576476e-03 3.22061195e-03 1.61030598e-03 0.
      8.05152988e-04 8.05152988e-04 8.05152988e-04 0. 2.41545890e-03
      4.02576476e-03 3.22061195e-03 4.83091781e-03 1.61030598e-03 0.
      4.02576476e-03 8.05152988e-04 0. 8.05152988e-04 8.05152988e-04
      8.05152988e-04 1.61030598e-03 8.05152988e-04 3.22061195e-03
      1.61030598e-03 2.41545890e-03 4.83091781e-03 1.61030598e-03
      4.02576476e-03 2.41545890e-03 8.05152988e-04 8.05152988e-04
      1.61030598e-03 0. 8.05152988e-04 3.22061195e-03 1.61030598e-03
      2.41545890e-03 8.05152988e-04 0. 0. 1.61030598e-03 8.05152988e-04
      0. 8.05152988e-04 1.61030598e-03 0. 1.61030598e-03 0.
      2.41545890e-03 4.83091781e-03 4.02576476e-03 0. 3.22061195e-03
      3.22061195e-03 4.02576476e-03 2.41545890e-03 1.61030598e-03
      1.61030598e-03 1.61030598e-03 8.05152988e-04 2.41545890e-03 0.
      5.63607085e-03 0. 4.02576476e-03 1.61030598e-03 2.41545890e-03
      1.61030598e-03 4.83091781e-03 2.41545890e-03 8.05152988e-04
      1.61030598e-03 8.05152988e-04 0. 2.41545890e-03 1.61030598e-03
      2.41545890e-03 8.05152988e-04</_>
    <_>
      1.29366107e-03 0. 0. 2.58732215e-03 3.88098322e-03 1.29366107e-03
      1.94049161e-03 2.58732215e-03 0. 1.94049161e-03 1.29366107e-03
      2.58732215e-03 3.23415268e-03 2.58732215e-03 6.46830536e-04 0.
      3.23415268e-03 1.94049161e-03 0. 6.46830536e-04 3.23415268e-03
      2.58732215e-03 2.58732215e-03 6.46830536e-04 1.29366107e-03
      4.52781375e-03 3.10478657e-02 1.29366107e-03 0. 1.94049161e-03
      6.46830536e-04 1.29366107e-03 1.29366107e-03 1.94049161e-03
      1.29366107e-03 4.52781375e-03 3.23415268e-03 7.76196644e-03 0. 0.
      2.58732215e-03 0. 4.52781375e-03 1.94049161e-03 1.29366107e-03
      1.29366107e-03 1.29366107e-03 6.46830536e-04 2.58732215e-03
      1.29366107e-03 0. 3.88098322e-03 1.29366107e-03 1.29366107e-03
      1.94049161e-03 1.94049161e-03 2.58732215e-03 1.29366107e-03
      1.29366107e-03 6.46830536e-04 3.23415268e-03 4.52781375e-03
      3.23415268e-03 1.29366107e-03 0. 0. 1.29366107e-03 3.23415268e-03
      1.29366107e-03 6.46830536e-04 3.23415268e-03 0. 2.58732215e-03
      1.94049161e-03 6.46830536e-04 6.46830536e-04 5.82147483e-03 0.
      6.46830536e-04 1.29366107e-03 0. 0. 0. 0. 3.23415268e-03
      2.58732215e-03 4.52781375e-03 0. 1.29366107e-03 0. 6.46830536e-04
      1.29366107e-03 6.46830536e-04 5.82147483e-03 1.94049161e-03 0. 0.
      6.46830536e-04 7.76196644e-03 3.88098322e-03 6.46830536e-04
      7.11513590e-03 0. 0. 2.58732215e-03 1.29366107e-03 3.23415268e-03
      1.94049161e-03 2.58732215e-03 6.46830536e-04 1.94049161e-03
      1.29366107e-03 1.29366107e-03 5.17464429e-03 0. 6.46830536e-04
      3.88098322e-03 0. 5.17464429e-03 1.29366107e-03 3.88098322e-03
      6.46830536e-04 1.94049161e-03 6.46830536e-04 0. 0. 1.29366107e-03
      1.94049161e-03 6.46830536e-04 6.46830536e-04 6.46830536e-04
      1.29366107e-03 1.29366107e-03 6.46830536e-04 1.94049161e-03
      1.94049161e-03 1.29366107e-03 9.70245805e-03 2.58732215e-03
      1.94049161e-03 0. 1.94049161e-03 1.94049161e-03 6.46830536e-04 0.
      6.46830536e-04 1.94049161e-03 6.46830536e-04 1.94049161e-03
      1.94049161e-03 1.29366107e-03 0. 4.52781375e-03 0. 6.46830536e-03
      1.29366107e-03 1.29366107e-03 2.58732215e-03 1.94049161e-03
      1.29366107e-03 1.94049161e-03 1.94049161e-03 4.52781375e-03
      1.29366107e-03 3.23415268e-03 5.82147483e-03 6.46830536e-04
      7.11513590e-03 1.94049161e-03 1.94049161e-03 1.29366107e-03
      1.29366107e-03 1.94049161e-03 1.94049161e-03 6.46830536e-04
      6.46830536e-04 2.58732215e-03 5.17464429e-03 0. 1.03492886e-02 0.
      1.68175939e-02 5.82147483e-03 2.58732215e-03 2.58732215e-03 0.
      1.29366107e-03 0. 0. 6.46830536e-04 0. 6.46830536e-04
      6.46830536e-04 1.94049161e-03 0. 0. 6.46830536e-04 1.29366107e-03
      4.52781375e-03 2.58732215e-03 6.46830536e-04 1.29366107e-03 0.
      5.82147483e-03 6.46830536e-04 2.58732215e-03 2.58732215e-03
      2.58732215e-03 1.29366107e-03 6.46830536e-04 0. 1.94049161e-03
      6.46830536e-04 1.94049161e-03 1.29366107e-03 1.94049161e-03
      2.58732215e-03 1.94049161e-03 0. 6.46830536e-04 6.46830536e-04
      3.23415268e-03 3.88098322e-03 0. 1.29366107e-03 3.23415268e-03 0.
      0. 1.94049161e-03 4.52781375e-03 3.23415268e-03 2.58732215e-03
      6.46830536e-03 1.29366107e-03 5.17464429e-03 2.58732215e-03
      5.17464429e-03 2.58732215e-03 6.46830536e-04 0. 6.46830536e-04
      9.05562751e-03 1.94049161e-03 1.94049161e-03 2.58732215e-03
      6.46830536e-04 1.94049161e-03 1.29366107e-03 1.29366107e-03
      1.29366107e-03 1.29366107e-03 1.29366107e-03 2.58732215e-03
      6.46830536e-04 6.46830536e-04 1.94049161e-03 3.23415268e-03
      1.94049161e-03 3.23415268e-03 2.58732215e-03 3.23415268e-03
      3.88098322e-03 0. 6.46830536e-04 3.23415268e-03 1.29366107e-03
      1.29366107e-03 1.94049161e-03 1.29366107e-03 1.94049161e-03
      1.94049161e-03 6.46830536e-04 0. 3.88098322e-03 6.46830536e-03 0.
      3.23415268e-03 1.94049161e-03 2.58732215e-03 0. 0. 1.94049161e-03
      1.29366107e-03 1.94049161e-03 0. 3.23415268e-03 1.94049161e-03
      6.46830536e-03 0. 6.46830536e-04 1.42302718e-02 0. 6.46830536e-04
      3.88098322e-03 1.94049161e-03 0. 5.82147483e-03 1.29366107e-03
      1.29366107e-03 4.52781375e-03 4.52781375e-03 4.52781375e-03
      1.94049161e-03 1.09961191e-02 3.88098322e-03 6.46830536e-04
      1.94049161e-03 6.46830536e-04 6.46830536e-04 1.29366107e-03
      1.29366107e-02 1.29366107e-03 3.88098322e-03 2.58732215e-03
      1.29366107e-03 1.29366107e-03 1.29366107e-03 1.29366107e-03
      6.46830536e-04 3.88098322e-03 0. 0. 1.94049161e-03 1.94049161e-03
      3.23415268e-03 1.29366107e-03 6.46830536e-04 0. 1.29366107e-03 0.
      0. 2.58732215e-03 1.94049161e-03 7.76196644e-03 6.46830536e-04 0.
      0. 6.46830536e-04 6.46830536e-04 1.94049161e-03 0. 3.88098322e-03
      1.94049161e-03 3.88098322e-03 1.94049161e-03 4.52781375e-03
      1.29366107e-03 6.46830536e-04 6.46830536e-04 2.58732215e-03
      6.46830536e-04 4.52781375e-03 1.94049161e-03 0. 3.88098322e-03
      3.88098322e-03 0. 1.29366107e-03 2.58732215e-03 6.46830536e-04
      2.58732215e-03 5.17464429e-03 2.58732215e-03 0. 6.46830536e-04
      3.23415268e-03 6.46830536e-04 6.46830536e-04 1.29366107e-03
      6.46830536e-04 3.23415268e-03 2.58732215e-03 6.46830536e-04 0.
      6.46830536e-04 2.58732215e-03 3.23415268e-03 5.17464429e-03
      5.17464429e-03 1.29366107e-03 1.29366107e-03 1.94049161e-03
      1.29366107e-03 2.58732215e-03 1.29366107e-03 1.29366107e-03
      1.29366107e-03 0. 0. 1.94049161e-03 0. 0. 6.46830536e-04 0.
      2.58732215e-03 6.46830536e-04 6.46830536e-04 1.94049161e-03
      6.46830536e-04 1.94049161e-03 6.46830536e-04 2.58732215e-03
      1.29366107e-03 6.46830536e-04 6.46830536e-04 0. 1.03492886e-02
      2.58732215e-03 5.82147483e-03 2.58732215e-03 2.58732215e-03
      6.46830536e-04 1.29366107e-03 2.58732215e-03 0. 6.46830536e-04 0.
      5.17464429e-03 5.82147483e-03 1.29366107e-03 1.94049161e-03
      1.29366107e-03 0. 6.46830536e-04 1.29366107e-03 0. 0.
      6.46830536e-04 1.29366107e-03 6.46830536e-04 1.29366107e-03
      1.94049161e-03 1.94049161e-03 0. 3.23415268e-03 1.29366107e-02
      5.17464429e-03 2.58732215e-03 6.46830536e-04 4.52781375e-03
      3.23415268e-03 6.46830536e-03 6.46830536e-04 1.29366107e-03
      1.29366107e-03 1.94049161e-03 6.46830536e-04 3.23415268e-03
      1.29366107e-03 0. 1.29366107e-03 6.46830536e-04 0. 1.94049161e-03
      2.58732215e-03 1.29366107e-03 6.46830536e-03 0. 2.58732215e-03 0.
      0. 0. 6.46830536e-04 6.46830536e-04 0. 2.58732215e-03
      1.29366107e-03 6.46830536e-04 1.94049161e-03 0. 0. 0.
      1.29366107e-03 0. 1.94049161e-03 6.46830536e-04 6.46830536e-04
      1.29366107e-03 0. 0. 1.94049161e-03 6.46830536e-04 6.46830536e-04
      0. 2.58732215e-03 1.94049161e-03 1.29366107e-03 0. 1.29366107e-03
      0. 2.58732215e-03 3.88098322e-03 2.58732215e-03 9.70245805e-03
      6.46830536e-04 1.29366107e-03 5.82147483e-03 1.29366107e-03
      4.52781375e-03 0.</_>
    <_>
      2.39425385e-03 0. 7.98084599e-04 3.19233839e-03 3.19233839e-03
      3.19233839e-03 7.98084599e-04 1.59616920e-03 2.39425385e-03
      1.59616920e-03 7.98084599e-04 1.59616920e-03 1.59616920e-03
      3.19233839e-03 0. 3.99042293e-03 1.59616920e-03 0. 2.39425385e-03
      3.19233839e-03 1.59616920e-03 2.39425385e-03 3.99042293e-03
      2.39425385e-03 3.19233839e-03 2.39425385e-03 0. 1.59616920e-03
      1.59616920e-03 7.98084599e-04 1.59616920e-03 3.19233839e-03
      7.98084587e-03 7.98084599e-04 7.98084599e-04 2.39425385e-03
      7.98084599e-04 3.19233839e-03 0. 1.59616920e-03 3.19233839e-03
      1.59616920e-03 1.59616920e-03 5.58659201e-03 4.78850771e-03 0. 0.
      3.19233839e-03 2.39425385e-03 4.78850771e-03 5.58659201e-03
      5.58659201e-03 3.19233839e-03 7.98084599e-04 7.98084599e-04
      1.59616920e-03 7.98084599e-04 2.39425385e-03 0. 0. 2.39425385e-03
      1.59616920e-03 7.98084599e-04 1.59616920e-03 1.59616920e-03
      7.98084599e-04 3.19233839e-03 9.57701541e-03 7.98084599e-04
      2.39425385e-03 4.78850771e-03 1.59616920e-03 3.99042293e-03 0. 0.
      3.99042293e-03 3.19233839e-03 0. 7.98084599e-04 0. 0. 0.
      2.39425385e-03 2.39425385e-03 3.99042293e-03 7.98084587e-03
      2.39425385e-03 6.38467679e-03 1.59616920e-03 0. 3.19233839e-03
      7.98084599e-04 1.59616920e-03 0. 0. 0. 3.19233839e-03
      2.39425385e-03 1.59616920e-03 7.98084599e-04 2.39425385e-03
      3.19233839e-03 7.98084599e-04 7.98084599e-04 4.78850771e-03
      3.19233839e-03 7.98084599e-04 7.98084599e-04 3.19233839e-03 0.
      2.39425385e-03 6.38467679e-03 7.98084599e-04 2.39425385e-03
      1.59616920e-03 1.59616920e-03 3.99042293e-03 2.39425385e-03
      1.59616920e-03 1.59616920e-03 1.59616920e-03 7.98084599e-04 0. 0.
      7.98084599e-04 7.98084599e-04 0. 2.39425385e-03 0. 2.39425385e-03
      7.98084599e-04 3.99042293e-03 1.59616920e-03 7.98084587e-03
      3.19233839e-03 1.59616920e-03 2.39425385e-03 1.59616920e-03 0.
      5.58659201e-03 7.98084599e-04 0. 7.98084599e-04 3.19233839e-03 0.
      2.39425385e-03 3.19233839e-03 7.98084599e-04 3.99042293e-03
      2.39425385e-03 2.39425385e-03 0. 3.99042293e-03 0. 0.
      1.59616920e-03 7.98084599e-04 0. 2.39425385e-03 4.78850771e-03 0.
      7.98084599e-04 1.59616920e-03 0. 1.59616920e-03 6.38467679e-03
      3.19233839e-03 3.99042293e-03 7.98084599e-04 2.39425385e-03 0. 0.
      7.98084599e-04 2.39425385e-03 3.19233839e-03 0. 7.98084599e-04
      7.98084599e-04 7.98084599e-04 7.98084599e-04 0. 3.99042293e-03
      2.39425385e-03 1.59616920e-03 1.59616920e-03 1.59616920e-03
      7.98084599e-04 0. 1.59616920e-03 0. 0. 4.78850771e-03
      2.39425385e-03 3.19233839e-03 1.59616920e-03 0. 7.98084599e-04
      7.98084599e-04 7.98084599e-04 3.99042293e-03 1.59616920e-03
      7.98084587e-03 0. 2.39425385e-03 2.39425385e-03 7.98084599e-04
      2.39425385e-03 7.98084599e-04 7.98084599e-04 0. 2.39425385e-03
      2.39425385e-03 0. 4.78850771e-03 8.77893064e-03 7.98084599e-04
      2.39425385e-03 2.39425385e-03 3.19233839e-03 7.98084599e-04
      4.78850771e-03 4.78850771e-03 0. 0. 7.98084599e-04 2.39425385e-03
      1.59616920e-03 0. 7.98084599e-04 2.39425385e-03 3.19233839e-03 0.
      7.98084599e-04 3.19233839e-03 1.59616920e-03 2.39425385e-03
      2.39425385e-03 3.19233839e-03 7.98084599e-04 3.19233839e-03
      1.59616920e-03 3.99042293e-03 2.39425385e-03 3.99042293e-03
      1.59616920e-03 7.98084599e-04 1.59616920e-03 3.99042293e-03
      2.39425385e-03 3.19233839e-03 1.59616920e-03 7.98084599e-04
      3.99042293e-03 7.98084599e-04 1.59616920e-03 3.99042293e-03
      3.19233839e-03 3.19233839e-03 1.59616920e-03 4.78850771e-03
      3.19233839e-03 1.59616920e-03 2.39425385e-03 1.59616920e-03
      4.78850771e-03 0. 1.59616920e-03 7.98084599e-04 1.59616920e-03
      7.98084599e-04 3.99042293e-03 1.59616920e-03 7.98084599e-04
      2.39425385e-03 7.18276156e-03 0. 2.39425385e-03 2.39425385e-03
      3.19233839e-03 1.59616920e-03 0. 1.59616920e-03 7.98084599e-04
      3.99042293e-03 3.19233839e-03 5.58659201e-03 3.19233839e-03
      3.99042293e-03 7.98084599e-04 0. 5.58659201e-03 7.98084599e-04 0.
      1.59616920e-03 3.19233839e-03 7.98084599e-04 3.19233839e-03 0.
      1.59616920e-03 3.99042293e-03 1.59616920e-03 1.59616920e-03
      1.59616920e-03 7.98084599e-04 2.39425385e-03 7.98084599e-04
      2.39425385e-03 7.98084599e-04 2.39425385e-03 7.98084599e-04
      3.99042293e-03 1.59616920e-03 1.59616920e-03 5.58659201e-03 0. 0.
      0. 3.19233839e-03 3.99042293e-03 0. 1.59616920e-03 1.59616920e-03
      2.39425385e-03 0. 3.99042293e-03 7.98084599e-04 7.18276156e-03 0.
      7.98084599e-04 2.39425385e-03 7.98084599e-04 3.99042293e-03
      3.19233839e-03 7.98084599e-04 7.98084599e-04 7.98084599e-04 0. 0.
      1.59616920e-03 5.58659201e-03 7.98084599e-04 7.98084599e-04
      7.98084599e-04 2.39425385e-03 1.59616920e-03 1.59616920e-03
      7.98084599e-04 1.59616920e-03 0. 5.58659201e-03 5.58659201e-03
      1.59616920e-03 1.59616920e-03 7.98084599e-04 3.99042293e-03
      7.98084599e-04 2.39425385e-03 7.98084599e-04 7.98084599e-04
      1.59616920e-03 2.39425385e-03 3.99042293e-03 2.39425385e-03 0.
      1.59616920e-03 6.38467679e-03 7.98084599e-04 1.59616920e-03 0.
      7.98084599e-04 0. 2.39425385e-03 2.39425385e-03 0. 0.
      2.39425385e-03 1.59616920e-03 8.77893064e-03 7.98084599e-04
      3.99042293e-03 0. 7.98084599e-04 3.19233839e-03 1.59616920e-03
      7.98084599e-04 2.39425385e-03 7.98084599e-04 2.39425385e-03 0.
      5.58659201e-03 0. 0. 7.98084599e-04 7.98084599e-04 4.78850771e-03
      7.98084599e-04 7.98084599e-04 0. 1.59616920e-03 1.59616920e-03
      7.98084599e-04 3.99042293e-03 7.98084599e-04 0. 7.98084599e-04 0.
      3.19233839e-03 0. 0. 2.39425385e-03 1.59616920e-03 7.98084599e-04
      3.19233839e-03 4.78850771e-03 0. 1.59616920e-03 2.39425385e-03
      3.19233839e-03 2.39425385e-03 3.99042293e-03 1.59616920e-03
      1.59616920e-03 0. 6.38467679e-03 0. 7.98084599e-04 0.
      7.98084599e-04 0. 2.39425385e-03 0. 4.78850771e-03 4.78850771e-03
      2.39425385e-03 4.78850771e-03 6.38467679e-03 1.59616920e-03
      7.98084599e-04 2.39425385e-03 1.59616920e-03 7.98084599e-04
      7.98084599e-04 2.39425385e-03 0. 0. 7.98084599e-04 7.98084599e-04
      3.19233839e-03 4.78850771e-03 4.78850771e-03 2.39425385e-03
      3.19233839e-03 0. 0. 1.59616920e-03 9.57701541e-03 0.
      7.98084599e-04 6.38467679e-03 7.98084599e-04 7.98084599e-04 0.
      2.39425385e-03 2.39425385e-03 2.39425385e-03 7.98084599e-04
      1.59616920e-03 7.98084599e-04 3.99042293e-03 0. 2.39425385e-03
      1.59616920e-03 7.98084599e-04 7.98084599e-04 5.58659201e-03 0.
      2.39425385e-03 3.99042293e-03 3.99042293e-03 2.39425385e-03
      6.38467679e-03 3.99042293e-03 0. 2.39425385e-03 1.59616920e-03 0.
      7.98084599e-04 2.39425385e-03 1.59616920e-03 1.59616920e-03
      1.59616920e-03 4.78850771e-03 0. 4.78850771e-03 1.59616920e-03
      7.98084599e-04 1.59616920e-03 1.59616920e-03 6.38467679e-03
      7.98084599e-04</_>
    <_>
      1.65975105e-03 1.65975105e-03 8.29875527e-04 8.29875527e-04
      2.48962664e-03 8.29875527e-04 2.48962664e-03 1.65975105e-03
      2.48962664e-03 8.29875527e-04 1.65975105e-03 1.65975105e-03
      1.65975105e-03 2.48962664e-03 3.31950211e-03 8.29875527e-04
      4.14937781e-03 0. 8.29875527e-04 4.97925328e-03 8.29875527e-04
      1.65975105e-03 2.48962664e-03 5.80912875e-03 8.29875527e-04
      2.48962664e-03 0. 3.31950211e-03 8.29875527e-04 8.29875527e-04
      8.29875527e-04 2.48962664e-03 0. 8.29875527e-04 8.29875527e-04
      7.46887969e-03 7.46887969e-03 8.29875562e-03 1.65975105e-03
      3.31950211e-03 8.29875527e-04 0. 3.31950211e-03 1.65975105e-03 0.
      8.29875527e-04 1.65975105e-03 2.48962664e-03 4.97925328e-03
      8.29875527e-04 8.29875527e-04 4.14937781e-03 0. 0. 8.29875527e-04
      2.48962664e-03 0. 2.48962664e-03 0. 8.29875527e-04 8.29875527e-04
      2.48962664e-03 3.31950211e-03 2.48962664e-03 0. 8.29875527e-04
      3.31950211e-03 8.29875527e-04 1.65975105e-03 8.29875527e-04
      2.48962664e-03 0. 2.48962664e-03 1.65975105e-03 1.65975105e-03
      1.65975105e-03 9.12863109e-03 8.29875527e-04 2.48962664e-03
      1.65975105e-03 4.14937781e-03 8.29875527e-04 0. 2.48962664e-03
      1.65975105e-03 3.31950211e-03 6.63900422e-03 8.29875527e-04 0.
      8.29875527e-04 4.14937781e-03 8.29875527e-04 8.29875527e-04
      3.31950211e-03 1.65975105e-03 0. 5.80912875e-03 0. 8.29875527e-04
      4.97925328e-03 5.80912875e-03 4.14937781e-03 8.29875527e-04 0.
      2.48962664e-03 0. 2.48962664e-03 3.31950211e-03 8.29875527e-04
      1.65975105e-03 8.29875527e-04 4.97925328e-03 1.65975105e-03
      8.29875527e-04 0. 0. 5.80912875e-03 3.31950211e-03 2.48962664e-03
      8.29875527e-04 1.65975105e-03 0. 2.48962664e-03 4.97925328e-03 0.
      3.31950211e-03 7.46887969e-03 1.65975105e-03 8.29875527e-04
      8.29875527e-04 8.29875527e-04 2.48962664e-03 1.65975105e-03
      8.29875527e-04 4.14937781e-03 1.65975105e-03 1.65975105e-03 0.
      8.29875527e-04 2.48962664e-03 3.31950211e-03 3.31950211e-03
      2.48962664e-03 3.31950211e-03 2.48962664e-03 8.29875527e-04
      1.65975105e-03 0. 1.65975105e-03 3.31950211e-03 8.29875527e-04
      3.31950211e-03 9.95850656e-03 8.29875527e-04 1.65975105e-03 0.
      1.65975105e-03 1.65975105e-03 8.29875527e-04 8.29875527e-04
      8.29875527e-04 1.65975105e-03 2.48962664e-03 8.29875527e-04
      2.48962664e-03 8.29875527e-04 1.65975105e-03 8.29875527e-04
      1.65975105e-03 5.80912875e-03 0. 8.29875527e-04 3.31950211e-03
      2.48962664e-03 1.65975105e-03 2.48962664e-03 4.14937781e-03
      1.65975105e-03 1.65975105e-03 8.29875527e-04 0. 0. 0.
      2.48962664e-03 1.65975105e-03 4.97925328e-03 8.29875527e-04 0.
      3.31950211e-03 0. 0. 4.97925328e-03 3.31950211e-03 0.
      8.29875527e-04 8.29875527e-04 0. 3.31950211e-03 3.31950211e-03
      2.48962664e-03 2.48962664e-03 4.14937781e-03 8.29875527e-04
      3.31950211e-03 8.29875527e-04 2.48962664e-03 4.97925328e-03
      8.29875527e-04 1.65975105e-03 0. 2.48962664e-03 8.29875527e-04 0.
      0. 3.31950211e-03 2.48962664e-03 0. 8.29875527e-04 8.29875527e-04
      0. 1.65975105e-03 2.48962664e-03 2.48962664e-03 1.65975105e-03
      3.31950211e-03 4.97925328e-03 8.29875527e-04 0. 8.29875527e-04
      5.80912875e-03 1.65975105e-03 1.65975105e-03 2.48962664e-03
      8.29875527e-04 5.80912875e-03 3.31950211e-03 1.65975105e-03
      5.80912875e-03 8.29875527e-04 1.65975105e-03 8.29875527e-04
      3.31950211e-03 1.65975105e-03 1.65975105e-03 1.65975105e-03
      8.29875527e-04 1.65975105e-03 4.14937781e-03 8.29875527e-04
      8.29875527e-04 0. 8.29875527e-04 1.65975105e-03 8.29875527e-04
      1.65975105e-03 1.65975105e-03 3.31950211e-03 1.65975105e-03
      1.65975105e-03 9.95850656e-03 1.65975105e-03 7.46887969e-03
      8.29875527e-04 4.97925328e-03 0. 0. 0. 8.29875527e-04
      1.65975105e-03 4.97925328e-03 4.97925328e-03 1.65975105e-03 0.
      1.65975105e-03 4.14937781e-03 8.29875527e-04 3.31950211e-03
      8.29875527e-04 2.48962664e-03 0. 0. 0. 5.80912875e-03
      2.48962664e-03 1.65975105e-03 3.31950211e-03 5.80912875e-03 0.
      8.29875527e-04 0. 8.29875527e-04 0. 8.29875527e-04 1.65975105e-03
      3.31950211e-03 0. 8.29875527e-04 1.65975105e-03 8.29875527e-04
      2.48962664e-03 0. 8.29875527e-04 2.48962664e-03 1.65975105e-03
      1.65975105e-03 5.80912875e-03 4.97925328e-03 8.29875527e-04
      1.65975105e-03 8.29875527e-04 1.65975105e-03 1.65975105e-03
      3.31950211e-03 4.14937781e-03 0. 4.97925328e-03 0. 1.65975105e-03
      1.65975105e-03 0. 8.29875527e-04 1.65975105e-03 1.65975105e-03
      8.29875527e-04 0. 4.14937781e-03 2.48962664e-03 8.29875527e-04 0.
      0. 8.29875527e-04 0. 1.65975105e-03 9.12863109e-03 8.29875527e-04
      8.29875527e-04 1.65975105e-03 1.65975105e-03 1.65975105e-03
      2.48962664e-03 0. 0. 0. 3.31950211e-03 3.31950211e-03
      6.63900422e-03 1.65975105e-03 2.48962664e-03 0. 6.63900422e-03
      4.14937781e-03 4.14937781e-03 8.29875527e-04 2.48962664e-03
      1.65975105e-03 1.65975105e-03 0. 8.29875527e-04 2.48962664e-03
      8.29875527e-04 3.31950211e-03 4.14937781e-03 1.65975105e-03
      2.48962664e-03 0. 4.97925328e-03 8.29875527e-04 1.65975105e-03
      2.48962664e-03 0. 1.65975105e-03 6.63900422e-03 0. 8.29875527e-04
      4.14937781e-03 8.29875527e-04 8.29875527e-04 0. 1.65975105e-03
      6.63900422e-03 0. 3.31950211e-03 4.14937781e-03 3.31950211e-03
      1.65975105e-03 4.97925328e-03 1.65975105e-03 8.29875527e-04
      8.29875527e-04 4.14937781e-03 0. 1.65975105e-03 3.31950211e-03 0.
      5.80912875e-03 0. 4.97925328e-03 4.14937781e-03 5.80912875e-03
      1.65975105e-03 0. 8.29875527e-04 3.31950211e-03 0. 1.65975105e-03
      8.29875527e-04 4.97925328e-03 0. 8.29875527e-04 5.80912875e-03
      8.29875527e-04 8.29875527e-04 1.65975105e-03 8.29875527e-04 0. 0.
      4.14937781e-03 0. 8.29875527e-04 2.48962664e-03 4.14937781e-03
      2.48962664e-03 4.14937781e-03 3.31950211e-03 8.29875527e-04
      1.65975105e-03 8.29875527e-04 0. 3.31950211e-03 0. 8.29875527e-04
      3.31950211e-03 1.65975105e-03 8.29875527e-04 1.65975105e-03
      8.29875527e-04 0. 8.29875527e-04 1.65975105e-03 1.65975105e-03
      1.65975105e-03 4.97925328e-03 1.65975105e-03 8.29875527e-04
      5.80912875e-03 2.48962664e-03 6.63900422e-03 2.48962664e-03
      1.65975105e-03 1.65975105e-03 4.14937781e-03 0. 0. 8.29875527e-04
      1.65975105e-03 7.46887969e-03 1.65975105e-03 8.29875527e-04
      3.31950211e-03 1.65975105e-03 0. 1.65975105e-03 0. 0.
      8.29875527e-04 2.48962664e-03 0. 0. 2.48962664e-03 1.65975105e-03
      3.31950211e-03 2.48962664e-03 4.97925328e-03 8.29875527e-04
      8.29875527e-04 8.29875527e-04 1.65975105e-03 0. 3.31950211e-03 0.
      5.80912875e-03 1.65975105e-03 0. 2.48962664e-03 1.65975105e-03 0.
      1.65975105e-03 1.65975105e-03 2.48962664e-03 1.65975105e-03
      3.31950211e-03 4.14937781e-03 2.48962664e-03 5.80912875e-03
      8.29875527e-04 4.14937781e-03 2.48962664e-03 1.65975105e-03
      8.29875527e-04 3.31950211e-03</_>
    <_>
      0. 1.11234700e-03 1.11234700e-03 4.44938801e-03 1.11234700e-03 0.
      0. 1.11234700e-03 2.22469401e-03 3.33704101e-03 4.44938801e-03
      5.56173502e-03 2.22469401e-03 3.33704101e-03 2.22469401e-03
      8.89877602e-03 0. 0. 1.11234700e-03 3.33704101e-03 4.44938801e-03
      1.11234700e-03 2.22469401e-03 2.22469401e-03 4.44938801e-03
      8.89877602e-03 0. 2.22469401e-03 1.11234700e-03 1.11234700e-03
      3.33704101e-03 1.11234700e-03 1.11234700e-03 5.56173502e-03
      3.33704101e-03 1.11234700e-03 0. 0. 4.44938801e-03 0.
      1.11234700e-03 3.33704101e-03 0. 1.11234700e-03 3.33704101e-03
      1.11234700e-03 0. 1.11234700e-03 4.44938801e-03 0. 0.
      3.33704101e-03 0. 3.33704101e-03 4.44938801e-03 0. 0. 0. 0.
      2.22469401e-03 0. 2.22469401e-03 2.22469401e-03 0. 4.44938801e-03
      2.22469401e-03 7.78642902e-03 2.22469401e-03 2.22469401e-03
      2.22469401e-03 2.22469401e-03 0. 3.33704101e-03 1.11234700e-03
      3.33704101e-03 6.67408202e-03 0. 2.22469401e-03 5.56173502e-03
      1.11234700e-03 4.44938801e-03 0. 2.22469401e-03 3.33704101e-03 0.
      1.11234700e-03 2.22469401e-03 1.00111235e-02 0. 3.33704101e-03 0.
      0. 3.33704101e-03 1.11234700e-03 2.22469401e-03 2.22469401e-03
      2.22469401e-03 3.33704101e-03 0. 0. 1.11234700e-03 0.
      1.11234700e-03 0. 0. 1.11234700e-03 0. 0. 1.11234700e-03 0.
      4.44938801e-03 1.11234700e-03 0. 0. 0. 7.78642902e-03
      5.56173502e-03 1.11234700e-03 6.67408202e-03 3.33704101e-03
      1.11234700e-03 0. 1.11234700e-03 1.11234700e-03 2.22469401e-03
      3.33704101e-03 6.67408202e-03 5.56173502e-03 0. 2.22469401e-03
      3.33704101e-03 1.11234700e-03 0. 6.67408202e-03 0. 1.11234700e-03
      0. 0. 0. 1.11234700e-03 2.22469401e-03 1.11234700e-03
      1.11234700e-03 0. 2.22469401e-03 4.44938801e-03 6.67408202e-03
      3.33704101e-03 2.22469401e-03 5.56173502e-03 4.44938801e-03
      3.33704101e-03 1.11234700e-03 1.11234700e-03 1.11234700e-03
      2.22469401e-03 1.11234700e-03 1.11234700e-03 2.22469401e-03 0. 0.
      3.33704101e-03 1.11234700e-03 2.22469401e-03 1.11234700e-03 0. 0.
      0. 0. 3.33704101e-03 1.11234700e-03 6.67408202e-03 0.
      3.33704101e-03 2.22469401e-03 1.11234700e-03 4.44938801e-03
      8.89877602e-03 3.33704101e-03 2.22469401e-03 0. 1.11234700e-03 0.
      0. 2.22469401e-03 4.44938801e-03 3.33704101e-03 2.22469401e-03
      3.33704101e-03 0. 0. 0. 1.11234700e-03 1.11234700e-03 0.
      3.33704101e-03 0. 5.56173502e-03 2.22469401e-03 0. 5.56173502e-03
      2.22469401e-03 4.44938801e-03 3.33704101e-03 4.44938801e-03
      1.11234700e-03 2.22469401e-03 3.33704101e-03 0. 2.22469401e-03
      6.67408202e-03 2.22469401e-03 0. 0. 0. 0. 3.33704101e-03
      3.33704101e-03 2.22469401e-03 1.11234700e-03 3.33704101e-03
      6.67408202e-03 0. 1.11234700e-03 1.11234700e-03 0. 0. 0.
      5.56173502e-03 0. 0. 0. 2.22469401e-03 1.11234700e-03 0.
      2.22469401e-03 0. 3.33704101e-03 4.44938801e-03 3.33704101e-03
      3.33704101e-03 1.11234700e-03 3.33704101e-03 3.33704101e-03
      1.11234700e-03 3.33704101e-03 0. 8.89877602e-03 0. 7.78642902e-03
      2.22469401e-03 0. 2.22469401e-03 4.44938801e-03 0. 0.
      2.22469401e-03 3.33704101e-03 0. 1.11234700e-03 2.22469401e-03 0.
      0. 2.22469401e-03 0. 0. 3.33704101e-03 7.78642902e-03 0.
      1.11234700e-03 7.78642902e-03 0. 3.33704101e-03 3.33704101e-03
      4.44938801e-03 2.22469401e-03 1.11234700e-03 2.22469401e-03
      2.22469401e-03 6.67408202e-03 3.33704101e-03 0. 3.33704101e-03
      1.11234700e-03 1.33481640e-02 2.22469401e-03 1.11234700e-03 0.
      1.11234700e-03 3.33704101e-03 3.33704101e-03 1.11234700e-03 0.
      2.22469401e-03 2.22469401e-03 0. 0. 5.56173502e-03 2.22469401e-03
      1.11234700e-03 1.11234700e-03 0. 1.11234700e-03 2.22469401e-03
      1.11234700e-03 2.22469401e-03 1.11234700e-03 4.44938801e-03 0.
      3.33704101e-03 0. 1.11234700e-03 2.22469401e-03 1.11234700e-03 0.
      1.11234700e-03 0. 2.22469401e-03 5.56173502e-03 0. 6.67408202e-03
      2.22469401e-03 5.56173502e-03 0. 0. 1.11234700e-03 1.11234700e-03
      1.11234700e-03 2.22469401e-03 0. 4.44938801e-03 2.22469401e-03
      8.89877602e-03 3.33704101e-03 2.22469401e-03 1.11234700e-03
      4.44938801e-03 3.33704101e-03 2.22469401e-03 1.11234700e-03 0.
      1.11234700e-03 0. 3.33704101e-03 5.56173502e-03 0. 6.67408202e-03
      2.22469401e-03 0. 1.11234700e-03 2.22469401e-03 1.11234700e-03 0.
      3.33704101e-03 7.78642902e-03 3.33704101e-03 0. 2.22469401e-03 0.
      4.44938801e-03 0. 0. 1.11234700e-03 0. 0. 0. 3.33704101e-03
      6.67408202e-03 7.78642902e-03 2.22469401e-03 0. 0. 3.33704101e-03
      0. 0. 5.56173502e-03 4.44938801e-03 1.11234700e-03 7.78642902e-03
      0. 0. 2.22469401e-03 1.11234700e-03 0. 0. 0. 2.22469401e-03
      1.11234700e-03 2.22469401e-03 3.33704101e-03 0. 1.11234700e-03
      2.22469401e-03 0. 1.11234700e-03 4.44938801e-03 4.44938801e-03 0.
      4.44938801e-03 2.22469401e-03 1.11234700e-03 2.22469401e-03
      6.67408202e-03 1.11234700e-03 2.22469401e-03 2.22469401e-03 0.
      1.11234700e-03 0. 0. 0. 6.67408202e-03 2.22469401e-03 0. 0.
      4.44938801e-03 0. 1.11234700e-03 0. 1.11234700e-03 2.22469401e-03
      2.22469401e-03 5.56173502e-03 4.44938801e-03 0. 2.22469401e-03
      6.67408202e-03 1.11234700e-03 0. 0. 0. 2.22469401e-03
      1.11234700e-03 0. 3.33704101e-03 0. 0. 0. 1.11234700e-03 0. 0. 0.
      1.11234700e-03 2.22469401e-03 2.22469401e-03 1.11234700e-03 0.
      1.00111235e-02 0. 3.33704101e-03 0. 1.11234700e-03 0.
      2.22469401e-03 0. 1.11234700e-03 0. 5.56173502e-03 3.33704101e-03
      2.22469401e-03 0. 2.22469401e-03 1.11234700e-03 2.22469401e-03
      2.22469401e-03 2.22469401e-03 2.22469401e-03 4.44938801e-03
      4.44938801e-03 1.11234700e-03 0. 0. 0. 0. 2.22469401e-03
      2.22469401e-03 0. 2.22469401e-03 3.33704101e-03 2.22469401e-03
      6.67408202e-03 1.11234700e-03 2.22469401e-03 1.11234700e-03 0. 0.
      2.22469401e-03 0. 1.11234700e-03 5.56173502e-03 2.22469401e-03 0.
      0. 0. 1.11234700e-03 1.11234700e-03 2.22469401e-03 1.11234700e-03
      0. 0.</_>
    <_>
      0. 9.96015966e-04 9.96015966e-04 2.98804790e-03 9.96015966e-04 0.
      3.98406386e-03 1.99203193e-03 1.99203193e-03 2.98804790e-03
      2.98804790e-03 3.98406386e-03 4.98007983e-03 9.96015966e-04
      2.98804790e-03 1.99203193e-03 0. 0. 3.98406386e-03 4.98007983e-03
      1.99203193e-03 2.98804790e-03 1.99203193e-03 6.97211176e-03
      1.99203193e-03 5.97609580e-03 0. 9.96015966e-04 9.96015966e-04
      2.98804790e-03 2.98804790e-03 3.98406386e-03 9.96015966e-04
      4.98007983e-03 0. 0. 9.96015966e-04 0. 1.99203193e-03 0. 0.
      1.99203193e-03 0. 3.98406386e-03 3.98406386e-03 9.96015966e-04 0.
      2.98804790e-03 2.98804790e-03 9.96015966e-04 0. 9.96015966e-04
      2.98804790e-03 2.98804790e-03 4.98007983e-03 0. 9.96015966e-04
      9.96015966e-04 9.96015966e-04 9.96015966e-04 1.99203193e-03
      9.96015966e-04 2.98804790e-03 9.96015966e-04 0. 9.96015966e-04
      4.98007983e-03 3.98406386e-03 1.99203193e-03 0. 2.98804790e-03 0.
      9.96015966e-04 0. 0. 4.98007983e-03 0. 9.96015966e-04
      5.97609580e-03 9.96015966e-04 1.99203193e-03 9.96015966e-04 0.
      2.98804790e-03 0. 1.99203193e-03 0. 6.97211176e-03 0.
      9.96015966e-04 9.96015966e-04 0. 9.96015966e-04 0. 9.96015966e-04
      2.98804790e-03 9.96015966e-04 5.97609580e-03 1.99203193e-03
      9.96015966e-04 3.98406386e-03 0. 9.96015966e-04 0. 4.98007983e-03
      0. 0. 1.99203193e-03 2.98804790e-03 9.96015966e-04 2.98804790e-03
      2.98804790e-03 1.99203193e-03 0. 0. 2.98804790e-03 0.
      1.99203193e-03 1.99203193e-03 9.96015966e-04 3.98406386e-03 0.
      2.98804790e-03 3.98406386e-03 5.97609580e-03 2.98804790e-03
      6.97211176e-03 2.98804790e-03 0. 5.97609580e-03 1.99203193e-03
      9.96015966e-04 5.97609580e-03 9.96015966e-03 9.96015966e-04
      9.96015966e-04 0. 1.99203193e-03 0. 0. 2.98804790e-03 0. 0. 0.
      9.96015966e-04 9.96015966e-04 4.98007983e-03 2.98804790e-03
      9.96015966e-04 7.96812773e-03 4.98007983e-03 1.99203193e-03 0.
      2.98804790e-03 1.99203193e-03 3.98406386e-03 1.99203193e-03
      1.99203193e-03 1.99203193e-03 9.96015966e-04 9.96015966e-04
      9.96015966e-04 1.99203193e-03 0. 0. 9.96015966e-04 0. 0.
      2.98804790e-03 1.99203193e-03 0. 2.98804790e-03 0. 4.98007983e-03
      4.98007983e-03 9.96015966e-04 7.96812773e-03 6.97211176e-03
      9.96015966e-04 0. 0. 0. 0. 9.96015966e-04 3.98406386e-03
      8.96414369e-03 9.96015966e-04 1.99203193e-03 3.98406386e-03 0. 0.
      9.96015966e-04 2.98804790e-03 9.96015966e-04 0. 0. 0.
      3.98406386e-03 1.99203193e-03 2.98804790e-03 9.96015966e-04
      3.98406386e-03 4.98007983e-03 2.98804790e-03 2.98804790e-03
      9.96015966e-04 2.98804790e-03 0. 0. 4.98007983e-03 4.98007983e-03
      2.98804790e-03 0. 4.98007983e-03 2.98804790e-03 2.98804790e-03
      9.96015966e-04 1.99203193e-03 3.98406386e-03 5.97609580e-03
      5.97609580e-03 0. 0. 9.96015966e-04 9.96015966e-04 0. 0. 0.
      3.98406386e-03 0. 8.96414369e-03 0. 0. 9.96015966e-04 0.
      2.98804790e-03 9.96015966e-04 1.99203193e-03 1.99203193e-03
      2.98804790e-03 0. 0. 9.96015966e-04 3.98406386e-03 9.96015966e-04
      1.49402395e-02 9.96015966e-04 5.97609580e-03 3.98406386e-03
      5.97609580e-03 4.98007983e-03 9.96015966e-04 3.98406386e-03
      9.96015966e-04 9.96015966e-04 0. 0. 9.96015966e-04 0. 0.
      9.96015966e-04 9.96015966e-04 2.98804790e-03 9.96015966e-04
      1.99203193e-03 1.99203193e-03 9.96015966e-04 5.97609580e-03
      9.96015966e-04 1.99203193e-03 6.97211176e-03 0. 4.98007983e-03 0.
      1.99203193e-03 0. 9.96015966e-04 1.99203193e-03 2.98804790e-03
      3.98406386e-03 9.96015966e-04 0. 9.96015966e-04 3.98406386e-03
      5.97609580e-03 9.96015966e-04 2.98804790e-03 9.96015966e-04 0. 0.
      9.96015966e-04 9.96015966e-04 9.96015966e-04 1.99203193e-03 0.
      9.96015966e-04 0. 5.97609580e-03 2.98804790e-03 5.97609580e-03 0.
      9.96015966e-04 9.96015966e-04 9.96015966e-04 2.98804790e-03
      2.98804790e-03 9.96015966e-04 5.97609580e-03 1.99203193e-03
      2.98804790e-03 0. 1.99203193e-03 9.96015966e-04 0. 0.
      5.97609580e-03 9.96015966e-04 1.99203193e-03 4.98007983e-03
      1.99203193e-03 5.97609580e-03 9.96015966e-04 5.97609580e-03
      9.96015966e-04 0. 2.98804790e-03 9.96015966e-04 1.99203193e-03
      9.96015966e-04 3.98406386e-03 1.99203193e-03 9.96015966e-04
      3.98406386e-03 1.99203193e-03 9.96015966e-04 0. 8.96414369e-03
      3.98406386e-03 2.98804790e-03 2.98804790e-03 0. 0. 9.96015966e-04
      9.96015966e-04 2.98804790e-03 2.98804790e-03 4.98007983e-03 0. 0.
      1.99203193e-03 2.98804790e-03 1.99203193e-03 0. 4.98007983e-03
      4.98007983e-03 9.96015966e-04 0. 0. 0. 1.99203193e-03
      9.96015966e-04 0. 9.96015966e-04 0. 9.96015966e-04 2.98804790e-03
      1.99203193e-03 0. 4.98007983e-03 0. 0. 9.96015966e-04
      9.96015966e-04 0. 1.99203193e-03 3.98406386e-03 2.98804790e-03
      9.96015966e-04 3.98406386e-03 0. 0. 1.99203193e-03 3.98406386e-03
      3.98406386e-03 0. 1.99203193e-03 3.98406386e-03 9.96015966e-04
      9.96015966e-04 1.99203193e-03 0. 0. 1.99203193e-03 9.96015966e-04
      6.97211176e-03 0. 2.98804790e-03 0. 1.99203193e-03 0.
      2.98804790e-03 1.99203193e-03 3.98406386e-03 5.97609580e-03
      9.96015966e-04 1.99203193e-03 0. 0. 0. 0. 9.96015966e-04
      9.96015966e-04 3.98406386e-03 9.96015966e-04 9.96015966e-04
      2.98804790e-03 0. 1.99203193e-03 9.96015966e-04 1.99203193e-03
      9.96015966e-04 2.98804790e-03 1.99203193e-03 2.98804790e-03 0. 0.
      3.98406386e-03 0. 0. 0. 0. 9.96015966e-04 1.99203193e-03 0.
      1.99203193e-03 0. 0. 9.96015966e-04 9.96015966e-04 0.
      2.98804790e-03 0. 1.99203193e-03 2.98804790e-03 0. 1.99203193e-03
      0. 2.98804790e-03 4.98007983e-03 9.96015966e-04 4.98007983e-03
      9.96015966e-04 9.96015966e-04 0. 2.98804790e-03 0. 0.
      7.96812773e-03 9.96015966e-04 1.99203193e-03 0. 2.98804790e-03 0.
      1.99203193e-03 0. 9.96015966e-04 1.99203193e-03 5.97609580e-03
      3.98406386e-03 9.96015966e-04 5.97609580e-03 1.99203193e-03
      1.09561756e-02 0. 2.98804790e-03 1.99203193e-03 0. 0.
      3.98406386e-03 9.96015966e-04 4.98007983e-03 0. 9.96015966e-04
      1.99203193e-03 9.96015966e-04 0. 6.97211176e-03 9.96015966e-04
      2.98804790e-03 1.99203193e-03 1.99203193e-03 9.96015966e-04
      1.99203193e-03 0. 1.99203193e-03 2.98804790e-03 5.97609580e-03 0.
      4.98007983e-03 4.98007983e-03</_>
    <_>
      1.02986617e-03 0. 1.02986617e-03 2.05973233e-03 1.02986617e-03 0.
      2.05973233e-03 2.05973233e-03 1.02986617e-03 2.05973233e-03
      1.02986617e-03 1.02986617e-03 5.14933094e-03 1.02986617e-03
      1.02986617e-03 7.20906304e-03 1.02986617e-03 0. 2.05973233e-03
      2.05973233e-03 2.05973233e-03 1.02986617e-03 3.08959838e-03
      2.05973233e-03 1.02986617e-03 2.05973233e-03 0. 0. 1.02986617e-03
      0. 8.23892932e-03 2.05973233e-03 4.11946466e-03 2.05973233e-03 0.
      4.11946466e-03 1.02986617e-03 1.02986617e-03 4.11946466e-03 0. 0.
      1.02986617e-03 1.02986617e-03 2.05973233e-03 6.17919676e-03
      1.02986617e-03 1.02986617e-03 2.05973233e-03 2.05973233e-03
      1.02986617e-03 0. 2.05973233e-03 2.05973233e-03 1.02986617e-03
      3.08959838e-03 1.02986617e-03 1.02986617e-03 2.05973233e-03
      4.11946466e-03 2.05973233e-03 1.02986617e-03 2.05973233e-03
      4.11946466e-03 4.11946466e-03 1.02986617e-03 0. 6.17919676e-03
      1.02986617e-03 4.11946466e-03 2.05973233e-03 2.05973233e-03
      1.02986617e-03 3.08959838e-03 1.02986617e-03 5.14933094e-03
      5.14933094e-03 0. 1.02986617e-03 6.17919676e-03 2.05973233e-03
      4.11946466e-03 0. 2.05973233e-03 4.11946466e-03 1.02986617e-03
      2.05973233e-03 0. 0. 2.05973233e-03 1.02986617e-03 0.
      1.02986617e-03 3.08959838e-03 7.20906304e-03 0. 2.05973233e-03
      1.02986617e-03 3.08959838e-03 3.08959838e-03 2.05973233e-03
      2.05973233e-03 2.05973233e-03 1.02986617e-03 0. 0. 2.05973233e-03
      2.05973233e-03 4.11946466e-03 2.05973233e-03 1.02986617e-03
      4.11946466e-03 5.14933094e-03 1.02986617e-03 2.05973233e-03 0.
      4.11946466e-03 5.14933094e-03 2.05973233e-03 2.05973233e-03 0.
      2.05973233e-03 1.02986617e-03 0. 2.05973233e-03 0. 2.05973233e-03
      5.14933094e-03 3.08959838e-03 0. 1.02986617e-03 0. 1.02986617e-03
      3.08959838e-03 1.02986617e-03 4.11946466e-03 1.02986617e-03
      1.02986617e-03 1.02986617e-03 0. 4.11946466e-03 1.02986617e-03
      3.08959838e-03 0. 1.02986617e-03 2.05973233e-03 1.02986617e-03
      5.14933094e-03 3.08959838e-03 2.05973233e-03 1.02986617e-03
      1.02986617e-03 3.08959838e-03 1.02986617e-03 1.02986617e-03 0.
      5.14933094e-03 2.05973233e-03 2.05973233e-03 2.05973233e-03
      1.02986617e-03 0. 3.08959838e-03 0. 0. 2.05973233e-03
      1.02986617e-03 0. 1.02986617e-03 1.02986617e-03 4.11946466e-03 0.
      5.14933094e-03 0. 4.11946466e-03 3.08959838e-03 1.02986617e-03
      1.02986617e-03 8.23892932e-03 0. 1.02986617e-03 0. 2.05973233e-03
      0. 0. 2.05973233e-03 1.23583935e-02 6.17919676e-03 0.
      5.14933094e-03 0. 2.05973233e-03 0. 0. 1.02986617e-03
      1.02986617e-03 0. 1.02986617e-03 5.14933094e-03 5.14933094e-03
      2.05973233e-03 7.20906304e-03 7.20906304e-03 1.02986617e-03
      3.08959838e-03 2.05973233e-03 3.08959838e-03 1.02986617e-03
      1.02986619e-02 0. 2.05973233e-03 6.17919676e-03 2.05973233e-03
      1.02986617e-03 2.05973233e-03 2.05973233e-03 2.05973233e-03
      2.05973233e-03 1.02986617e-03 6.17919676e-03 7.20906304e-03
      4.11946466e-03 0. 0. 1.02986617e-03 3.08959838e-03 1.02986617e-03
      0. 0. 3.08959838e-03 5.14933094e-03 0. 0. 1.02986617e-03
      4.11946466e-03 3.08959838e-03 2.05973233e-03 0. 2.05973233e-03
      3.08959838e-03 5.14933094e-03 1.02986617e-03 0. 1.02986617e-03
      4.11946466e-03 4.11946466e-03 3.08959838e-03 1.02986617e-03
      6.17919676e-03 1.02986617e-03 7.20906304e-03 2.05973233e-03 0.
      1.02986617e-03 1.02986617e-03 0. 2.05973233e-03 0. 2.05973233e-03
      0. 7.20906304e-03 1.02986617e-03 0. 2.05973233e-03 1.02986617e-03
      0. 1.02986617e-03 1.02986617e-03 7.20906304e-03 0. 1.02986617e-03
      7.20906304e-03 0. 1.02986617e-03 1.02986617e-03 4.11946466e-03 0.
      0. 4.11946466e-03 6.17919676e-03 2.05973233e-03 1.02986617e-03 0.
      1.02986617e-03 3.08959838e-03 4.11946466e-03 0. 2.05973233e-03
      1.02986617e-03 0. 6.17919676e-03 0. 1.02986617e-03 0.
      1.02986617e-03 1.02986617e-03 2.05973233e-03 1.02986617e-03
      3.08959838e-03 2.05973233e-03 1.13285277e-02 1.02986617e-03
      2.05973233e-03 0. 0. 1.02986617e-03 2.05973233e-03 0.
      3.08959838e-03 0. 3.08959838e-03 1.02986617e-03 0. 1.02986617e-03
      0. 0. 4.11946466e-03 1.02986617e-03 2.05973233e-03 5.14933094e-03
      2.05973233e-03 6.17919676e-03 1.02986617e-03 9.26879514e-03
      2.05973233e-03 2.05973233e-03 6.17919676e-03 2.05973233e-03
      1.02986617e-03 3.08959838e-03 1.02986617e-03 0. 0. 2.05973233e-03
      2.05973233e-03 0. 1.02986617e-03 5.14933094e-03 5.14933094e-03
      2.05973233e-03 4.11946466e-03 0. 2.05973233e-03 0. 2.05973233e-03
      5.14933094e-03 2.05973233e-03 8.23892932e-03 1.02986617e-03 0.
      1.02986617e-03 2.05973233e-03 0. 0. 0. 5.14933094e-03
      3.08959838e-03 0. 2.05973233e-03 2.05973233e-03 4.11946466e-03 0.
      3.08959838e-03 0. 0. 0. 3.08959838e-03 2.05973233e-03
      1.02986617e-03 9.26879514e-03 0. 0. 0. 1.02986617e-03
      1.02986617e-03 0. 4.11946466e-03 2.05973233e-03 3.08959838e-03
      5.14933094e-03 1.02986617e-03 0. 1.02986617e-03 2.05973233e-03
      4.11946466e-03 3.08959838e-03 1.02986617e-03 0. 2.05973233e-03
      2.05973233e-03 2.05973233e-03 0. 2.05973233e-03 3.08959838e-03
      1.02986617e-03 3.08959838e-03 0. 4.11946466e-03 1.02986617e-03
      3.08959838e-03 2.05973233e-03 0. 1.02986617e-03 1.02986617e-03
      1.02986617e-03 1.02986617e-03 2.05973233e-03 3.08959838e-03
      1.02986617e-03 0. 3.08959838e-03 1.02986617e-03 0. 2.05973233e-03
      1.02986617e-03 0. 4.11946466e-03 0. 3.08959838e-03 1.02986617e-03
      1.02986617e-03 1.02986617e-03 5.14933094e-03 0. 6.17919676e-03 0.
      1.02986617e-03 1.02986617e-03 2.05973233e-03 1.02986617e-03 0.
      4.11946466e-03 2.05973233e-03 2.05973233e-03 0. 4.11946466e-03
      2.05973233e-03 1.02986617e-03 1.02986617e-03 4.11946466e-03
      1.02986617e-03 2.05973233e-03 2.05973233e-03 2.05973233e-03 0.
      4.11946466e-03 2.05973233e-03 3.08959838e-03 7.20906304e-03
      1.02986617e-03 5.14933094e-03 3.08959838e-03 1.02986617e-03
      1.02986617e-03 0. 0. 0. 7.20906304e-03 2.05973233e-03
      1.02986617e-03 1.02986617e-03 0. 3.08959838e-03 0. 0. 0. 0.
      5.14933094e-03 4.11946466e-03 5.14933094e-03 0. 0. 2.05973233e-03
      3.08959838e-03 0. 2.05973233e-03 0. 0. 1.02986617e-03
      3.08959838e-03 2.05973233e-03 6.17919676e-03 1.02986617e-03
      2.05973233e-03 3.08959838e-03 3.08959838e-03 0. 4.11946466e-03
      1.02986617e-03 0. 1.02986617e-03 2.05973233e-03 3.08959838e-03
      1.02986617e-03 0. 0. 1.02986617e-03 0. 0. 3.08959838e-03 0.</_>
    <_>
      0. 3.82775115e-03 2.87081348e-03 2.39234441e-03 9.56937787e-04 0.
      0. 4.78468894e-04 1.91387557e-03 4.78468894e-04 1.43540669e-02
      1.91387557e-03 9.56937787e-04 1.43540674e-03 1.10047841e-02
      9.56937787e-04 0. 9.09090880e-03 9.56937787e-04 4.78468894e-04
      2.39234441e-03 0. 2.39234441e-03 9.56937787e-04 2.39234441e-03 0.
      0. 1.43540674e-03 7.65550230e-03 0. 6.69856463e-03 9.56937787e-04
      1.43540674e-03 1.43540674e-03 7.65550230e-03 0. 4.78468894e-04
      9.56937787e-04 2.87081348e-03 1.91387557e-03 1.14832539e-02
      4.78468894e-04 2.87081348e-03 0. 4.78468894e-04 2.39234441e-03
      3.34928231e-03 4.78468894e-04 2.87081348e-03 1.43540674e-03
      1.91387557e-03 2.39234441e-03 2.39234441e-03 4.78468894e-04
      1.43540674e-03 1.91387557e-03 1.43540674e-03 1.91387557e-03
      9.56937787e-04 4.78468894e-04 2.87081348e-03 0. 8.61243997e-03
      4.30621998e-03 5.26315765e-03 2.39234441e-03 1.91387557e-03
      4.78468894e-04 9.56937787e-04 4.78468894e-04 9.56937787e-04
      2.39234441e-03 2.39234441e-03 1.43540674e-03 5.26315765e-03
      4.30621998e-03 9.56937787e-04 1.91387557e-03 9.56937787e-04
      4.30621998e-03 4.78468894e-04 3.82775115e-03 4.78468894e-04
      2.39234441e-03 9.56937787e-04 4.78468894e-04 1.43540674e-03
      1.91387557e-03 9.09090880e-03 4.78468894e-04 0. 3.82775115e-03
      7.17703346e-03 0. 4.78468894e-04 0. 4.30621998e-03 2.87081348e-03
      1.43540674e-03 1.43540674e-03 4.30621998e-03 1.91387557e-03
      4.78468882e-03 1.43540674e-03 4.78468894e-04 1.43540674e-03 0.
      9.56937787e-04 0. 0. 1.43540674e-03 6.22009579e-03 0.
      2.39234441e-03 1.43540674e-03 0. 4.30621998e-03 4.78468894e-04
      4.78468882e-03 0. 4.78468894e-04 1.91387557e-03 2.39234441e-03
      1.43540674e-03 4.78468894e-04 1.43540674e-03 4.30621998e-03
      1.91387557e-03 5.74162696e-03 0. 4.30621998e-03 4.78468882e-03 0.
      0. 0. 1.91387557e-03 2.39234441e-03 9.56937787e-04 1.91387557e-03
      9.56937787e-04 2.39234441e-03 5.74162696e-03 9.56937787e-04
      2.87081348e-03 2.87081348e-03 1.91387557e-03 9.56937787e-04
      1.48325358e-02 1.29186604e-02 0. 4.78468882e-03 1.43540674e-03
      1.91387557e-03 4.78468894e-04 0. 0. 1.91387557e-03 0.
      1.91387557e-03 1.43540674e-03 3.34928231e-03 9.56937787e-04
      4.78468894e-04 2.87081348e-03 1.43540674e-03 4.78468894e-04
      1.43540674e-03 4.78468894e-04 1.43540674e-03 1.91387557e-03
      1.43540674e-03 0. 4.78468894e-04 4.78468882e-03 0. 1.91387557e-03
      9.56937787e-04 0. 4.78468882e-03 9.56937787e-04 1.43540674e-03 0.
      0. 4.78468894e-04 1.43540674e-03 0. 4.78468894e-04 3.34928231e-03
      2.87081348e-03 4.78468894e-04 1.43540674e-03 4.78468894e-04
      4.78468894e-04 5.26315765e-03 9.56937787e-04 3.82775115e-03
      9.56937787e-04 2.39234441e-03 3.34928231e-03 9.56937787e-04
      2.87081348e-03 2.39234441e-03 7.17703346e-03 9.56937787e-04 0.
      2.87081348e-03 1.91387557e-03 1.43540674e-03 3.34928231e-03
      4.30621998e-03 2.87081348e-03 9.56937787e-04 9.56937787e-04
      9.56937787e-04 0. 9.56937787e-04 0. 4.78468882e-03 2.39234441e-03
      9.56937787e-04 9.56937787e-04 1.43540674e-03 4.78468894e-04
      7.17703346e-03 2.39234441e-03 1.43540674e-03 4.78468894e-04
      4.78468894e-04 2.39234441e-03 1.91387557e-03 0. 3.34928231e-03
      1.43540674e-03 1.91387557e-03 1.91387557e-03 9.56937787e-04 0.
      1.29186604e-02 1.43540674e-03 1.91387557e-03 3.82775115e-03
      1.91387557e-03 1.91387557e-03 9.56937787e-04 9.56937787e-04 0.
      1.43540674e-03 1.43540674e-03 0. 1.91387557e-03 2.39234441e-03
      2.39234441e-03 9.56937787e-04 4.30621998e-03 2.39234441e-03
      1.43540674e-03 9.56937787e-04 3.34928231e-03 9.56937787e-04
      9.56937787e-04 0. 0. 0. 3.82775115e-03 0. 2.87081348e-03
      2.87081348e-03 1.43540674e-03 1.14832539e-02 2.87081348e-03
      1.43540674e-03 0. 0. 4.78468894e-04 8.13397113e-03 9.09090880e-03
      2.87081348e-03 1.43540674e-03 4.78468894e-04 4.78468894e-04
      1.43540674e-03 9.56937787e-04 1.91387557e-03 9.56937787e-04
      2.87081348e-03 0. 1.91387557e-03 9.56937787e-04 5.26315765e-03
      3.34928231e-03 4.78468894e-04 4.30621998e-03 2.39234441e-03
      1.43540674e-03 7.17703346e-03 4.30621998e-03 2.39234441e-03
      1.43540674e-03 9.56937787e-04 0. 4.78468894e-04 2.87081348e-03
      2.39234441e-03 1.43540674e-03 4.78468882e-03 1.91387557e-03
      4.78468894e-04 1.43540674e-03 2.87081348e-03 1.43540674e-03 0. 0.
      3.82775115e-03 0. 9.56937787e-04 0. 1.43540674e-03 4.78468894e-04
      4.78468894e-04 4.78468894e-04 1.91387553e-02 2.87081348e-03
      3.82775115e-03 1.91387557e-03 4.78468894e-04 4.78468894e-04
      1.43540674e-03 4.78468882e-03 4.78468894e-04 1.43540674e-03
      5.26315765e-03 4.78468894e-04 9.56937787e-04 2.39234441e-03
      1.43540674e-03 2.39234441e-03 9.56937787e-04 1.43540674e-03
      3.34928231e-03 9.56937787e-04 9.56937787e-04 4.78468882e-03
      6.22009579e-03 4.78468894e-04 2.87081348e-03 0. 1.91387557e-03
      1.43540674e-03 1.43540674e-03 0. 0. 2.87081348e-03 4.78468882e-03
      4.78468894e-04 4.78468894e-04 1.43540674e-03 4.78468894e-04
      1.43540674e-03 1.43540674e-03 9.56937787e-04 4.78468882e-03
      1.91387557e-03 9.56937787e-04 9.56937787e-04 1.43540674e-03
      3.82775115e-03 3.82775115e-03 4.78468894e-04 3.34928231e-03
      1.91387557e-03 0. 1.43540674e-03 1.91387557e-03 9.56937787e-04
      1.91387557e-03 2.39234441e-03 0. 4.78468894e-04 4.78468894e-04
      9.56937787e-04 1.91387557e-03 1.91387557e-03 0. 0. 2.87081348e-03
      1.43540674e-03 0. 9.56937787e-04 1.43540674e-03 1.91387557e-03
      9.56937787e-04 2.39234441e-03 3.34928231e-03 1.43540674e-03
      4.78468894e-04 2.39234441e-03 9.56937787e-04 4.78468894e-04
      9.56937787e-04 4.30621998e-03 1.91387557e-03 1.91387557e-03 0.
      5.26315765e-03 2.87081348e-03 1.10047841e-02 8.13397113e-03
      1.43540674e-03 4.30621998e-03 1.43540674e-03 0. 9.56937787e-04 0.
      4.78468894e-04 6.22009579e-03 1.91387557e-03 1.43540674e-03
      4.78468894e-04 4.78468894e-04 1.43540674e-03 9.56937787e-04
      2.39234441e-03 1.43540674e-03 2.58373208e-02 4.30621998e-03
      1.91387557e-03 1.43540674e-03 9.56937787e-04 0. 9.56937787e-04
      9.56937787e-04 4.78468894e-04 0. 1.91387557e-03 1.43540674e-03
      1.91387557e-03 9.56937787e-04 9.56937787e-04 2.87081348e-03 0.
      3.34928231e-03 0. 9.56937787e-04 1.43540674e-03 4.78468894e-04 0.
      4.78468894e-04 4.78468894e-04 0. 0. 9.56937787e-04 9.56937787e-04
      0. 3.34928231e-03 9.56937787e-04 4.78468894e-04 3.34928231e-03
      4.78468894e-04 0. 0. 9.56937787e-04 4.78468882e-03 2.39234441e-03
      3.82775115e-03 0. 9.56937787e-04 4.78468894e-04 1.91387557e-03
      4.78468894e-04 9.56937787e-04 4.78468894e-04 8.13397113e-03 0.
      4.78468894e-04 4.78468894e-04 2.39234441e-03 0. 0. 1.43540674e-03
      2.39234441e-03 4.30621998e-03 4.30621998e-03 0. 9.56937787e-04 0.
      0. 1.91387557e-03 0. 0. 1.91387557e-03 4.78468894e-04 0.
      9.56937787e-04 4.78468894e-04 0. 4.30621998e-03 0. 4.78468894e-04
      1.91387557e-03 0.</_>
    <_>
      0. 2.71002715e-03 2.16802163e-03 4.33604326e-03 1.08401082e-03 0.
      5.42005408e-04 5.42005408e-04 2.16802163e-03 1.08401082e-03
      8.13008100e-03 1.08401082e-03 0. 1.08401082e-03 7.58807547e-03
      4.33604326e-03 0. 7.58807547e-03 2.71002715e-03 5.42005408e-04
      2.16802163e-03 0. 1.62601622e-03 1.08401082e-03 2.71002715e-03
      1.08401082e-03 0. 3.79403774e-03 8.13008100e-03 0. 1.02981031e-02
      2.16802163e-03 1.62601622e-03 0. 8.13008100e-03 5.42005408e-04 0.
      0. 2.16802163e-03 1.62601622e-03 8.67208652e-03 1.08401082e-03
      1.08401082e-03 0. 5.42005408e-04 2.71002715e-03 4.87804879e-03 0.
      2.71002715e-03 0. 2.71002715e-03 2.71002715e-03 2.71002715e-03 0.
      5.42005408e-04 1.62601622e-03 1.08401082e-03 0. 3.25203245e-03
      1.08401082e-03 4.33604326e-03 5.42005408e-04 1.35501353e-02
      2.16802163e-03 7.58807547e-03 1.62601622e-03 1.08401082e-03
      1.08401082e-03 0. 0. 1.08401082e-03 1.62601622e-03 1.08401082e-03
      1.62601622e-03 6.50406489e-03 4.87804879e-03 1.08401082e-03
      5.42005408e-04 1.08401082e-03 4.33604326e-03 0. 5.42005431e-03
      2.71002715e-03 3.25203245e-03 0. 5.42005408e-04 2.16802163e-03
      2.16802163e-03 8.13008100e-03 5.42005408e-04 5.42005408e-04
      2.16802163e-03 4.33604326e-03 0. 0. 0. 5.42005431e-03
      2.16802163e-03 2.16802163e-03 1.08401082e-03 1.62601622e-03
      1.62601622e-03 4.33604326e-03 1.08401082e-03 5.42005408e-04
      5.42005408e-04 5.42005408e-04 1.62601622e-03 0. 0. 4.33604326e-03
      9.75609757e-03 0. 2.16802163e-03 1.62601622e-03 5.42005408e-04
      4.87804879e-03 2.71002715e-03 5.42005431e-03 5.42005408e-04
      1.08401082e-03 5.42005408e-04 3.25203245e-03 1.62601622e-03
      2.16802163e-03 2.71002715e-03 2.71002715e-03 1.62601622e-03
      2.71002715e-03 2.16802163e-03 4.87804879e-03 4.33604326e-03
      5.42005408e-04 5.42005408e-04 0. 2.71002715e-03 0. 0.
      3.79403774e-03 1.08401082e-03 2.71002715e-03 2.71002715e-03
      1.62601622e-03 3.25203245e-03 2.16802163e-03 1.62601622e-03
      1.08401082e-03 1.19241187e-02 6.50406489e-03 0. 7.04607042e-03
      1.08401082e-03 2.71002715e-03 0. 0. 5.42005408e-04 0. 0.
      2.71002715e-03 5.42005408e-04 4.87804879e-03 2.71002715e-03
      5.42005408e-04 4.33604326e-03 1.62601622e-03 0. 5.42005431e-03 0.
      2.16802163e-03 0. 1.62601622e-03 1.62601622e-03 1.08401082e-03
      3.79403774e-03 0. 1.62601622e-03 5.42005408e-04 5.42005408e-04
      5.42005431e-03 0. 5.42005408e-04 0. 0. 0. 2.71002715e-03 0.
      2.71002715e-03 1.08401082e-03 3.25203245e-03 5.42005408e-04
      2.71002715e-03 5.42005408e-04 0. 2.16802163e-03 5.42005408e-04
      4.33604326e-03 2.16802163e-03 2.16802163e-03 3.25203245e-03
      1.08401082e-03 2.71002715e-03 1.08401082e-03 5.42005431e-03
      1.62601622e-03 5.42005408e-04 2.71002715e-03 1.62601622e-03
      5.42005408e-04 4.33604326e-03 6.50406489e-03 1.08401082e-03 0. 0.
      1.08401082e-03 0. 0. 0. 4.33604326e-03 2.71002715e-03
      2.16802163e-03 5.42005408e-04 1.62601622e-03 5.42005408e-04
      2.71002715e-03 1.62601622e-03 1.08401082e-03 1.08401082e-03 0.
      1.08401082e-03 2.16802163e-03 1.08401082e-03 1.08401082e-03
      2.71002715e-03 2.71002715e-03 2.16802163e-03 0. 5.42005408e-04
      9.75609757e-03 5.42005408e-04 2.71002715e-03 3.25203245e-03 0.
      3.25203245e-03 2.71002715e-03 1.08401082e-03 1.08401082e-03
      5.42005408e-04 1.08401082e-03 0. 1.08401082e-03 2.71002715e-03
      2.16802163e-03 0. 4.87804879e-03 2.16802163e-03 5.42005408e-04
      5.42005408e-04 2.71002715e-03 0. 1.08401082e-03 1.62601622e-03 0.
      0. 2.71002715e-03 0. 1.62601622e-03 3.79403774e-03 1.08401082e-03
      8.13008100e-03 2.16802163e-03 2.16802163e-03 5.42005408e-04
      3.25203245e-03 0. 4.87804879e-03 9.21409205e-03 1.08401082e-03
      1.08401082e-03 1.08401082e-03 0. 5.42005408e-04 1.08401082e-03
      1.62601622e-03 1.08401082e-03 4.87804879e-03 1.08401082e-03
      3.25203245e-03 0. 5.96205937e-03 1.62601622e-03 1.08401082e-03
      2.71002715e-03 1.62601622e-03 2.71002715e-03 8.13008100e-03
      2.71002715e-03 1.62601622e-03 1.62601622e-03 1.08401082e-03
      5.42005408e-04 1.08401082e-03 3.79403774e-03 5.42005408e-04
      1.62601622e-03 2.71002715e-03 5.42005408e-04 1.62601622e-03
      2.16802163e-03 2.71002715e-03 1.08401082e-03 0. 1.08401082e-03
      5.42005408e-04 0. 1.08401082e-03 0. 5.42005408e-04 0.
      5.42005408e-04 5.42005408e-04 2.05962062e-02 2.71002715e-03
      3.25203245e-03 2.16802163e-03 5.42005408e-04 5.42005408e-04
      1.08401082e-03 7.58807547e-03 1.62601622e-03 0. 5.96205937e-03
      5.42005408e-04 0. 3.25203245e-03 1.08401082e-03 1.62601622e-03
      1.62601622e-03 0. 7.04607042e-03 1.08401082e-03 0. 1.08401082e-03
      5.96205937e-03 2.16802163e-03 2.16802163e-03 0. 3.25203245e-03
      1.08401082e-03 5.42005408e-04 0. 0. 4.33604326e-03 1.62601622e-03
      2.16802163e-03 5.42005408e-04 2.16802163e-03 0. 1.62601622e-03
      5.42005408e-04 0. 2.71002715e-03 1.08401082e-03 1.08401082e-03 0.
      1.62601622e-03 5.42005431e-03 5.96205937e-03 0. 2.71002715e-03
      3.79403774e-03 0. 5.42005408e-04 1.08401082e-03 5.42005408e-04
      2.16802163e-03 1.08401082e-03 5.42005408e-04 5.42005408e-04
      2.16802163e-03 1.62601622e-03 5.42005408e-04 1.62601622e-03
      1.08401082e-03 1.62601622e-03 2.71002715e-03 5.42005408e-04
      2.71002715e-03 1.62601622e-03 1.62601622e-03 2.71002715e-03
      1.62601622e-03 1.62601622e-03 4.87804879e-03 0. 0. 3.25203245e-03
      2.16802163e-03 0. 0. 3.79403774e-03 5.42005408e-04 5.42005408e-04
      0. 5.42005431e-03 2.71002715e-03 8.13008100e-03 8.13008100e-03
      2.71002715e-03 2.16802163e-03 2.71002715e-03 0. 2.71002715e-03 0.
      5.42005408e-04 4.33604326e-03 1.62601622e-03 5.42005408e-04
      5.42005408e-04 1.62601622e-03 1.08401082e-03 2.16802163e-03
      1.08401082e-03 1.08401082e-03 2.87262872e-02 9.21409205e-03
      1.62601622e-03 5.96205937e-03 1.62601622e-03 0. 1.62601622e-03
      1.62601622e-03 1.08401082e-03 0. 1.08401082e-03 2.71002715e-03 0.
      1.08401082e-03 1.08401082e-03 1.62601622e-03 1.08401082e-03
      5.42005408e-04 0. 1.08401082e-03 1.62601622e-03 1.08401082e-03
      5.42005408e-04 5.42005408e-04 5.42005408e-04 1.62601622e-03
      1.08401082e-03 1.62601622e-03 1.08401082e-03 3.25203245e-03
      3.79403774e-03 2.16802163e-03 0. 3.25203245e-03 1.62601622e-03
      5.42005408e-04 1.62601622e-03 1.62601622e-03 4.87804879e-03
      2.16802163e-03 3.79403774e-03 1.08401082e-03 1.08401082e-03
      1.08401082e-03 1.08401082e-03 5.42005408e-04 1.08401082e-03
      1.08401082e-03 5.96205937e-03 5.42005408e-04 5.42005408e-04 0.
      2.71002715e-03 0. 2.71002715e-03 5.42005408e-04 2.16802163e-03
      2.16802163e-03 3.79403774e-03 5.42005408e-04 2.16802163e-03 0.
      1.08401082e-03 5.42005408e-04 1.62601622e-03 5.42005408e-04
      5.42005408e-04 5.42005408e-04 5.42005408e-04 5.42005408e-04
      5.42005408e-04 0. 3.79403774e-03 0. 0. 0. 1.62601622e-03</_>
    <_>
      0. 4.99750115e-03 4.99750138e-04 3.49825108e-03 4.99750138e-04
      4.99750138e-04 0. 0. 9.99500277e-04 1.49925041e-03 1.04947528e-02
      9.99500277e-04 0. 1.99900055e-03 7.99600221e-03 1.99900055e-03 0.
      9.49525274e-03 1.99900055e-03 0. 2.99850083e-03 0. 2.99850083e-03
      0. 9.99500277e-04 9.99500277e-04 0. 2.99850083e-03 6.99650217e-03
      9.99500277e-04 7.99600221e-03 4.99750138e-04 1.99900055e-03
      9.99500277e-04 6.49675168e-03 1.99900055e-03 9.99500277e-04
      4.99750138e-04 4.99750138e-04 1.49925041e-03 9.49525274e-03
      4.99750138e-04 2.49875057e-03 0. 0. 2.99850083e-03 3.49825108e-03
      9.99500277e-04 2.49875057e-03 1.99900055e-03 3.49825108e-03
      1.49925041e-03 1.99900055e-03 4.99750138e-04 4.99750138e-04
      9.99500277e-04 1.99900055e-03 9.99500277e-04 0. 9.99500277e-04
      4.49775113e-03 4.99750138e-04 1.34932538e-02 7.99600221e-03
      3.99800111e-03 2.49875057e-03 0. 2.49875057e-03 0. 0.
      9.99500277e-04 1.99900055e-03 1.99900055e-03 1.49925041e-03
      6.99650217e-03 2.99850083e-03 9.99500277e-04 1.49925041e-03
      1.99900055e-03 6.99650217e-03 1.99900055e-03 7.99600221e-03
      4.99750138e-04 1.99900055e-03 0. 1.99900055e-03 2.49875057e-03
      1.49925041e-03 8.49575270e-03 0. 4.99750138e-04 1.49925041e-03
      3.49825108e-03 4.99750138e-04 4.99750138e-04 9.99500277e-04
      6.49675168e-03 1.49925041e-03 9.99500277e-04 4.99750138e-04
      2.99850083e-03 0. 3.49825108e-03 4.99750138e-04 0. 0.
      4.99750138e-04 0. 2.99850083e-03 0. 3.99800111e-03 1.24937538e-02
      9.99500277e-04 2.49875057e-03 1.49925041e-03 0. 4.99750115e-03
      2.99850083e-03 2.99850083e-03 4.99750138e-04 9.99500277e-04
      1.49925041e-03 3.49825108e-03 1.49925041e-03 1.99900055e-03
      2.49875057e-03 3.99800111e-03 4.99750138e-04 1.99900055e-03
      1.99900055e-03 1.49925041e-03 4.99750115e-03 0. 0. 0.
      2.49875057e-03 1.49925041e-03 9.99500277e-04 1.99900055e-03 0.
      1.99900055e-03 2.99850083e-03 1.49925041e-03 2.99850083e-03
      3.49825108e-03 1.99900055e-03 9.99500277e-04 1.29935034e-02
      1.14942528e-02 0. 6.49675168e-03 9.99500277e-04 3.49825108e-03 0.
      0. 0. 9.99500277e-04 0. 9.99500277e-04 9.99500277e-04
      7.99600221e-03 0. 4.99750138e-04 3.49825108e-03 9.99500277e-04
      9.99500277e-04 2.49875057e-03 0. 2.99850083e-03 9.99500277e-04
      2.49875057e-03 4.99750138e-04 4.99750138e-04 1.99900055e-03 0.
      1.99900055e-03 4.99750138e-04 1.49925041e-03 3.49825108e-03 0.
      1.99900055e-03 0. 0. 0. 2.49875057e-03 0. 9.99500277e-04
      2.99850083e-03 4.49775113e-03 0. 1.49925041e-03 4.99750138e-04 0.
      2.99850083e-03 4.99750138e-04 5.99700166e-03 4.99750138e-04
      9.99500277e-04 6.49675168e-03 9.99500277e-04 1.49925041e-03
      1.49925041e-03 5.99700166e-03 4.99750138e-04 4.99750138e-04
      1.99900055e-03 1.49925041e-03 1.49925041e-03 5.49725164e-03
      4.49775113e-03 4.99750138e-04 9.99500277e-04 0. 4.99750138e-04 0.
      4.99750138e-04 1.49925041e-03 5.99700166e-03 1.49925041e-03
      4.99750138e-04 0. 1.49925041e-03 1.49925041e-03 6.49675168e-03
      9.99500277e-04 1.49925041e-03 1.49925041e-03 0. 3.99800111e-03
      2.99850083e-03 4.99750138e-04 5.49725164e-03 1.99900055e-03
      1.49925041e-03 1.99900055e-03 9.99500277e-04 0. 1.04947528e-02
      1.99900055e-03 2.49875057e-03 1.99900055e-03 0. 1.49925041e-03
      1.99900055e-03 9.99500277e-04 0. 0. 4.99750138e-04 4.99750138e-04
      2.99850083e-03 3.99800111e-03 4.99750138e-04 4.99750138e-04
      4.99750115e-03 2.49875057e-03 1.49925041e-03 9.99500277e-04
      2.49875057e-03 4.99750138e-04 9.99500277e-04 4.99750138e-04 0.
      4.99750138e-04 5.99700166e-03 0. 1.99900055e-03 2.99850083e-03
      9.99500277e-04 4.99750115e-03 2.49875057e-03 5.49725164e-03
      4.99750138e-04 0. 4.99750138e-04 4.49775113e-03 9.99500230e-03
      1.99900055e-03 1.49925041e-03 9.99500277e-04 1.99900055e-03
      4.99750138e-04 9.99500277e-04 4.99750138e-04 9.99500277e-04
      1.49925041e-03 4.99750138e-04 3.99800111e-03 0. 5.49725164e-03
      2.49875057e-03 4.99750138e-04 3.99800111e-03 2.49875057e-03
      2.99850083e-03 5.49725164e-03 5.49725164e-03 2.49875057e-03
      9.99500277e-04 2.49875057e-03 0. 4.99750138e-04 4.49775113e-03
      1.49925041e-03 2.99850083e-03 2.49875057e-03 9.99500277e-04
      4.99750138e-04 1.99900055e-03 1.99900055e-03 9.99500277e-04 0.
      1.49925041e-03 1.99900055e-03 0. 9.99500277e-04 4.99750138e-04
      4.99750138e-04 9.99500277e-04 4.99750138e-04 4.99750138e-04
      1.79910045e-02 2.49875057e-03 4.49775113e-03 3.49825108e-03 0. 0.
      9.99500277e-04 4.99750115e-03 1.99900055e-03 1.99900055e-03
      5.99700166e-03 1.49925041e-03 4.99750138e-04 3.49825108e-03
      9.99500277e-04 1.99900055e-03 1.99900055e-03 9.99500277e-04
      5.99700166e-03 9.99500277e-04 0. 5.49725164e-03 6.99650217e-03
      4.99750138e-04 1.49925041e-03 9.99500277e-04 3.49825108e-03
      9.99500277e-04 4.99750138e-04 0. 0. 1.49925041e-03 2.99850083e-03
      1.99900055e-03 2.49875057e-03 3.99800111e-03 0. 2.49875057e-03
      2.99850083e-03 9.99500277e-04 3.49825108e-03 1.99900055e-03
      9.99500277e-04 0. 1.49925041e-03 2.49875057e-03 2.99850083e-03 0.
      2.99850083e-03 3.49825108e-03 0. 1.49925041e-03 2.49875057e-03
      1.49925041e-03 2.99850083e-03 4.99750115e-03 0. 1.49925041e-03
      4.99750138e-04 0. 1.99900055e-03 1.49925041e-03 4.99750138e-04
      4.99750138e-04 2.99850083e-03 0. 1.49925041e-03 1.49925041e-03
      1.99900055e-03 1.99900055e-03 1.49925041e-03 1.99900055e-03
      3.49825108e-03 1.49925041e-03 1.49925041e-03 1.99900055e-03
      1.99900055e-03 0. 0. 3.99800111e-03 2.49875057e-03 1.49925041e-03
      0. 5.49725164e-03 1.49925041e-03 5.99700166e-03 8.99550226e-03
      1.49925041e-03 1.49925041e-03 1.49925041e-03 0. 4.99750138e-04
      4.99750138e-04 4.99750138e-04 4.49775113e-03 1.49925041e-03
      4.99750138e-04 1.49925041e-03 9.99500277e-04 1.99900055e-03
      2.49875057e-03 1.49925041e-03 9.99500277e-04 2.39880066e-02
      6.49675168e-03 1.49925041e-03 1.49925041e-03 1.49925041e-03 0.
      9.99500277e-04 1.99900055e-03 0. 0. 1.99900055e-03 3.49825108e-03
      0. 4.99750138e-04 4.99750138e-04 1.99900055e-03 4.99750138e-04
      1.99900055e-03 0. 1.49925041e-03 4.99750138e-04 4.99750138e-04
      9.99500277e-04 0. 9.99500277e-04 0. 4.99750138e-04 9.99500277e-04
      9.99500277e-04 9.99500277e-04 3.49825108e-03 2.99850083e-03
      4.99750138e-04 2.99850083e-03 1.49925041e-03 0. 9.99500277e-04
      9.99500277e-04 3.99800111e-03 1.49925041e-03 2.99850083e-03
      9.99500277e-04 0. 0. 1.49925041e-03 4.99750138e-04 9.99500277e-04
      4.99750138e-04 4.49775113e-03 0. 0. 4.99750138e-04 1.99900055e-03
      4.99750138e-04 0. 0. 1.99900055e-03 4.99750115e-03 5.49725164e-03
      4.99750138e-04 4.99750138e-04 0. 0. 9.99500277e-04 4.99750138e-04
      0. 2.49875057e-03 0. 0. 9.99500277e-04 9.99500277e-04 0.
      1.99900055e-03 0. 4.99750138e-04 9.99500277e-04 9.99500277e-04</_></support_vectors>
  <decision_functions>
    <_>
      <sv_count>2</sv_count>
      <rho>0.</rho>
      <alpha>
        1. -1.</alpha>
      <index>
        0 1</index></_>
    <_>
      <sv_count>2</sv_count>
      <rho>0.</rho>
      <alpha>
        1. -1.</alpha>
      <index>
        0 2</index></_>
    <_>
      <sv_count>2</sv_count>
      <rho>0.</rho>
      <alpha>
        1. -1.</alpha>
      <index>
        0 3</index></_>
    <_>
      <sv_count>2</sv_count>
      <rho>0.</rho>
      <alpha>
        1. -1.</alpha>
      <index>
        0 4</index></_>
    <_>
      <sv_count>2</sv_count>
      <rho>0.</rho>
      <alpha>
        1. -1.</alpha>
      <index>
        0 5</index></_>
    <_>
      <sv_count>2</sv_count>
      <rho>0.</rho>
      <alpha>
        1. -1.</alpha>
      <index>
        0 6</index></_>
    <_>
      <sv_count>2</sv_count>
      <rho>0.</rho>
      <alpha>
        1. -1.</alpha>
      <index>
        0 7</index></_>
    <_>
      <sv_count>2</sv_count>
      <rho>0.</rho>
      <alpha>
        1. -1.</alpha>
      <index>
        0 8</index></_>
    <_>
      <sv_count>2</sv_count>
      <rho>0.</rho>
      <alpha>
        1. -1.</alpha>
      <index>
        0 9</index></_>
    <_>
      <sv_count>2</sv_count>
      <rho>0.</rho>
      <alpha>
        1. -1.</alpha>
      <index>
        1 2</index></_>
    <_>
      <sv_count>2</sv_count>
      <rho>0.</rho>
      <alpha>
        1. -1.</alpha>
      <index>
        1 3</index></_>
    <_>
      <sv_count>2</sv_count>
      <rho>0.</rho>
      <alpha>
        1. -1.</alpha>
      <index>
        1 4</index></_>
    <_>
      <sv_count>2</sv_count>
      <rho>0.</rho>
      <alpha>
        1. -1.</alpha>
      <index>
        1 5</index></_>
    <_>
      <sv_count>2</sv_count>
      <rho>0.</rho>
      <alpha>
        1. -1.</alpha>
      <index>
        1 6</index></_>
    <_>
      <sv_count>2</sv_count>
      <rho>0.</rho>
      <alpha>
        1. -1.</alpha>
      <index>
        1 7</index></_>
    <_>
      <sv_count>2</sv_count>
      <rho>0.</rho>
      <alpha>
        1. -1.</alpha>
      <index>
        1 8</index></_>
    <_>
      <sv_count>2</sv_count>
      <rho>0.</rho>
      <alpha>
        1. -1.</alpha>
      <index>
        1 9</index></_>
    <_>
      <sv_count>2</sv_count>
      <rho>0.</rho>
      <alpha>
        1. -1.</alpha>
      <index>
        2 3</index></_>
    <_>
      <sv_count>2</sv_count>
      <rho>0.</rho>
      <alpha>
        1. -1.</alpha>
      <index>
        2 4</index></_>
    <_>
      <sv_count>2</sv_count>
      <rho>0.</rho>
      <alpha>
        1. -1.</alpha>
      <index>
        2 5</index></_>
    <_>
      <sv_count>2</sv_count>
      <rho>0.</rho>
      <alpha>
        1. -1.</alpha>
      <index>
        2 6</index></_>
    <_>
      <sv_count>2</sv_count>
      <rho>0.</rho>
      <alpha>
        1. -1.</alpha>
      <index>
        2 7</index></_>
    <_>
      <sv_count>2</sv_count>
      <rho>0.</rho>
      <alpha>
        1. -1.</alpha>
      <index>
        2 8</index></_>
    <_>
      <sv_count>2</sv_count>
      <rho>0.</rho>
      <alpha>
        1. -1.</alpha>
      <index>
        2 9</index></_>
    <_>
      <sv_count>2</sv_count>
      <rho>0.</rho>
      <alpha>
        1. -1.</alpha>
      <index>
        3 4</index></_>
    <_>
      <sv_count>2</sv_count>
      <rho>0.</rho>
      <alpha>
        1. -1.</alpha>
      <index>
        3 5</index></_>
    <_>
      <sv_count>2</sv_count>
      <rho>0.</rho>
      <alpha>
        1. -1.</alpha>
      <index>
        3 6</index></_>
    <_>
      <sv_count>2</sv_count>
      <rho>0.</rho>
      <alpha>
        1. -1.</alpha>
      <index>
        3 7</index></_>
    <_>
      <sv_count>2</sv_count>
      <rho>0.</rho>
      <alpha>
        1. -1.</alpha>
      <index>
        3 8</index></_>
    <_>
      <sv_count>2</sv_count>
      <rho>0.</rho>
      <alpha>
        1. -1.</alpha>
      <index>
        3 9</index></_>
    <_>
      <sv_count>2</sv_count>
      <rho>0.</rho>
      <alpha>
        1. -1.</alpha>
      <index>
        4 5</index></_>
    <_>
      <sv_count>2</sv_count>
      <rho>0.</rho>
      <alpha>
        1. -1.</alpha>
      <index>
        4 6</index></_>
    <_>
      <sv_count>2</sv_count>
      <rho>0.</rho>
      <alpha>
        1. -1.</alpha>
      <index>
        4 7</index></_>
    <_>
      <sv_count>2</sv_count>
      <rho>0.</rho>
      <alpha>
        1. -1.</alpha>
      <index>
        4 8</index></_>
    <_>
      <sv_count>2</sv_count>
      <rho>0.</rho>
      <alpha>
        1. -1.</alpha>
      <index>
        4 9</index></_>
    <_>
      <sv_count>2</sv_count>
      <rho>0.</rho>
      <alpha>
        1. -1.</alpha>
      <index>
        5 6</index></_>
    <_>
      <sv_count>2</sv_count>
      <rho>0.</rho>
      <alpha>
        1. -1.</alpha>
      <index>
        5 7</index></_>
    <_>
      <sv_count>2</sv_count>
      <rho>0.</rho>
      <alpha>
        1. -1.</alpha>
      <index>
        5 8</index></_>
    <_>
      <sv_count>2</sv_count>
      <rho>0.</rho>
      <alpha>
        1. -1.</alpha>
      <index>
        5 9</index></_>
    <_>
      <sv_count>2</sv_count>
      <rho>0.</rho>
      <alpha>
        1. -1.</alpha>
      <index>
        6 7</index></_>
    <_>
      <sv_count>2</sv_count>
      <rho>0.</rho>
      <alpha>
        1. -1.</alpha>
      <index>
        6 8</index></_>
    <_>
      <sv_count>2</sv_count>
      <rho>0.</rho>
      <alpha>
        1. -1.</alpha>
      <index>
        6 9</index></_>
    <_>
      <sv_count>2</sv_count>
      <rho>0.</rho>
      <alpha>
        1. -1.</alpha>
      <index>
        7 8</index></_>
    <_>
      <sv_count>2</sv_count>
      <rho>0.</rho>
      <alpha>
        1. -1.</alpha>
      <index>
        7 9</index></_>
    <_>
      <sv_count>2</sv_count>
      <rho>0.</rho>
      <alpha>
        1. -1.</alpha>
      <index>
        8 9</index></_></decision_functions></opencv_ml_svm>
</opencv_storage>
